svm_type c_svc
kernel_type rbf
gamma 0.005
nr_class 2
total_sv 175
rho 1.09976
label 1 -1
probA -2.77436
probB 0.0879366
nr_sv 86 89
SV
0.9791815216375996 1:0.063293 2:0.203243 3:0.220681 4:0.530899 5:0.312457 6:0.412395 7:0.368979 8:0.102893 9:0.136704 10:0.193592 11:0.418925 12:0.412563 13:0.533636 14:0.26573 15:0.406688 16:0.473991 17:0.544488 18:0.158106 19:0.538624 20:0.474557 24:0.183099 28:0.114084 30:0.160211 31:0.0690141 32:0.084507 33:0.169014 37:0.142254 41:0.0647887 42:0.223474 46:0.112676 47:0.0971831 48:0.214085 49:0.18169 51:0.24507 52:0.122066 56:0.0610329 57:0.084507 60:0.0647887 64:0.777465 66:0.166197 67:0.112676 71:0.0985915 72:0.0985915 73:0.26338 76:0.130282 77:0.220657 80:0.142254 81:0.0882629 84:0.414085 85:0.661972 86:0.605634 87:0.143192 93:0.377465 94:0.178404 95:0.496901 97:0.192676 99:0.252582 100:0.0711268 101:0.266667 106:0.366197 108:0.169014 116:0.36338 117:0.271831 119:0.183099 120:0.36338 122:0.0971831 123:0.26338 124:0.129577 125:0.247535 127:0.450704 128:0.338028 130:0.184038 131:0.0751174 132:0.293662 134:0.522066 136:0.529577 137:0.414085 140:0.10892 141:0.138028 145:0.211424 146:0.182535 147:0.0778001 148:0.149296 151:0.225352 153:0.0971831 155:0.767606 156:0.388732 157:0.549296 159:0.339906 160:0.225352 161:0.0997183 162:0.0624413 163:0.292741 164:0.132394 167:0.156807 171:0.114084 172:0.0915493 173:0.179718 175:0.288934 176:0.13615 179:0.169014 180:0.0838028 182:0.140845 194:0.267606 195:0.169014 200:0.147887 201:0.188732 202:0.229108 207:0.283944 208:0.0971831 212:0.176427 216:0.335211 219:0.183099 220:0.13169 221:0.0901408 223:0.326761 224:0.0783098 225:0.282897 226:0.0849765 227:0.153521 228:0.128169 230:0.147887 231:0.315493 232:0.276056 233:0.435211 235:0.21784 236:0.338028 237:0.138028 238:0.228169 239:0.419718 240:0.184038 242:0.261408 246:0.257746 247:0.414085 250:0.335211 251:0.317746 252:0.128169 253:0.183099 254:0.366197 255:0.507042 256:0.0807512 257:0.670423 260:0.183099 262:0.225352 263:0.138028 265:0.907042 267:0.450704 268:0.183099 271:0.467606 272:0.291549 273:0.138028 276:0.307746 277:0.183099 279:0.26338 284:0.388732 285:0.169014 286:0.10493 287:0.0943662 288:0.0629108 290:0.148893 291:0.096338 293:0.256338 295:0.456338 302:0.169014 303:0.456338 304:0.40939 305:0.124648 306:0.36338 307:0.264789 308:0.227465 311:0.284507 314:0.21167 315:0.0439682 317:0.264789 320:0.353052 322:0.128169 324:0.188732 326:0.151408 327:0.526056 329:0.169014 330:0.352817 331:0.201878 332:0.312113 333:0.16338 334:0.264789 335:0.124648 336:0.184038 337:0.153521 338:0.397183 339:0.169014 340:0.342254 343:0.183099 346:0.414085 348:0.0915493 349:0.183099 350:0.200563 351:0.226761 352:0.256338 353:0.441315 356:0.284507 357:0.151584 359:0.169014 360:0.456338 369:0.228169 372:0.169014 381:0.084507 382:0.183099 385:0.183099 386:0.377465 390:0.206197 391:0.295775 392:0.169014 397:0.302535 399:0.209859 400:0.16338 403:0.388732 404:0.310563 405:0.183099 406:0.225352 410:0.142254 411:0.48169 412:0.326761 413:0.183099 415:0.264789 416:0.496479 419:0.177465 420:0.211831 421:0.553874 422:0.682477 423:0.395481 424:0.516749 425:0.606266 426:0.502432 427:0.412341 428:0.551951 429:0.443763 430:0.530506 431:0.317842 432:0.398076 433:0.50526 434:0.364606 435:0.421845 436:0.518228 437:0.609571 438:0.721621 439:0.50372 440:0.734071 441:0.279574 442:0.502253 443:0.557691 444:0.39112 445:0.586203 446:0.439532 447:0.432094 448:0.283268 449:0.599445 450:0.562492 451:0.375946 452:0.418012 453:0.274146 454:0.365574 455:0.428168 456:0.335923 457:0.321832 458:0.438476 459:0.358401 460:0.520043 461:0.168606 462:0.282932 463:0.368165 464:0.517577 465:0.304292 466:0.444254 467:0.406286 468:0.581171 469:0.449089 470:0.314589 471:0.478592 472:0.388624 473:0.484392 474:0.542601 475:0.210151 476:0.384511 477:0.355505 478:0.347289 479:0.572714 480:0.377875 481:0.361964 482:0.339351 483:0.253031 484:0.23809 485:0.369796 486:0.210181 487:0.319645 488:0.0915675 489:0.315224 490:0.397451 491:0.286066 492:0.412481 493:0.531148 494:0.403614 495:0.43728 496:0.437444 497:0.47719 498:0.441278 499:0.368405 500:0.165821 501:0.37404 502:0.300307 503:0.381967 504:0.507312 505:0.387274 506:0.220929 507:0.362708 508:0.535709 509:0.571423 510:0.38738 511:0.593492 512:0.630941 513:0.133788 514:0.378578 515:0.36774 516:0.0942555 517:0.635963 518:0.642252 519:0.593085 520:0.487277 521:0.422736 522:0.0606973 523:0.491492 524:0.672491 525:0.466415 526:0.258541 527:0.73921 528:0.462584 529:0.0993353 530:0.569111 531:0.550313 532:0.272601 533:0.434153 534:0.395677 535:0.407589 536:0.492626 537:0.371329 538:0.769832 539:0.4514 540:0.451114 541:0.274945 542:0.227925 543:0.260546 544:0.156563 545:0.264238 546:0.28076 547:0.37785 548:0.175195 549:0.295645 550:0.337115 551:0.280028 552:0.328212 553:0.539974 554:0.466666 555:0.417127 556:0.370764 557:0.463555 558:0.436828 559:0.443367 560:0.199371 561:0.334412 562:0.336401 563:0.422149 564:0.592703 565:0.428597 566:0.248832 567:0.409426 568:0.578455 569:0.554863 570:0.396634 571:0.291455 572:0.290125 573:0.273699 574:0.219553 575:0.338627 576:0.261285 577:0.31638 578:0.134663 579:0.317732 580:0.363559 581:0.231503 582:0.310204 583:0.547591 584:0.337301 585:0.533966 586:0.382536 587:0.48215 588:0.49415 589:0.361863 590:0.268333 591:0.442263 592:0.355812 593:0.298064 594:0.501493 595:0.425502 596:0.177929 597:0.277886 598:0.498018 599:0.538964 600:0.382764 601:0.127004 602:0.148794 603:0.281133 604:0.122427 605:0.294602 606:0.131389 607:0.312124 608:0.327799 609:0.282773 610:0.270213 611:0.287089 612:0.310059 613:0.376914 614:0.463759 615:0.302219 616:0.279268 617:0.311597 618:0.396913 619:0.423353 620:0.290612 621:0.419177 622:0.467936 623:0.237069 624:0.466426 625:0.495149 626:0.373034 627:0.223012 628:0.450105 629:0.349946 630:0.447839 631:0.423334 632:0.291461 633:0.451683 634:0.487245 635:0.534737 636:0.184664 637:0.324999 638:0.395524 639:0.274341 640:0.444592 641:0.340837 642:0.613316 643:0.810665 644:0.456814 645:0.366449 646:0.497968 647:0.621533 648:0.490099 649:0.397841 650:0.439645 651:0.424919 652:0.31941 653:0.435717 654:0.559517 655:0.447346 656:0.314745 657:0.64481 658:0.367371 659:0.495569 660:0.51177 661:0.587094 662:0.75747 663:0.476146 664:0.548391 665:0.557797 666:0.553929 667:0.463873 668:0.591678 669:0.515792 670:0.652916 671:0.281611 672:0.428816 673:0.561782 674:0.422154 675:0.401244 676:0.507081 677:0.496289 678:0.683527 679:0.560738 680:0.691364 681:0.334256 682:0.444846 683:0.659595 684:0.461759 685:0.628584 686:0.432621 687:0.423464 688:0.387103 689:0.623845 690:0.584771 691:0.593841 692:0.548403 693:0.352041 694:0.594064 695:0.538225 696:0.301488 697:0.467647 698:0.594469 699:0.504297 700:0.689045 701:0.230549 702:0.290041 703:0.580845 704:0.519093 705:0.550804 706:0.467529 707:0.606115 708:0.733977 709:0.431665 710:0.34135 711:0.466502 712:0.483653 713:0.61852 714:0.731205 715:0.248978 716:0.554977 717:0.420079 718:0.408339 719:0.653621 720:0.43328 721:0.518014 722:0.454026 723:0.415842 724:0.36346 725:0.569908 726:0.257853 727:0.335399 728:0.196747 729:0.44465 730:0.468556 731:0.3822 732:0.470579 733:0.662112 734:0.50538 735:0.609995 736:0.629159 737:0.57553 738:0.543437 739:0.377026 740:0.10836 741:0.465492 742:0.538501 743:0.554879 744:0.765015 745:0.47007 746:0.240899 747:0.497726 748:0.693554 749:0.837748 750:0.398606 751:0.749978 752:0.562328 753:0.285618 754:0.353988 755:0.584566 756:0.208817 757:0.761623 758:0.714237 759:0.797676 760:0.646432 761:0.413552 762:0.240955 763:0.630086 764:0.743528 765:0.706406 766:0.451074 767:0.734299 768:0.652272 769:0.334092 770:0.516092 771:0.70988 772:0.437503 773:0.560742 774:0.613228 775:0.468892 776:0.574537 777:0.537555 778:0.841067 779:0.570349 780:0.6669 781:0.415433 782:0.392593 783:0.43923 784:0.336068 785:0.452268 786:0.340396 787:0.431287 788:0.156895 789:0.329263 790:0.509659 791:0.376867 792:0.510808 793:0.640124 794:0.555485 795:0.560461 796:0.534212 797:0.502961 798:0.472193 799:0.428758 800:0.281623 801:0.44492 802:0.529959 803:0.529395 804:0.776355 805:0.593662 806:0.279777 807:0.633291 808:0.751973 809:0.817178 810:0.436064 811:0.51847 812:0.428776 813:0.44842 814:0.368165 815:0.543601 816:0.333815 817:0.393751 818:0.18613 819:0.477748 820:0.462033 821:0.346109 822:0.443747 823:0.64846 824:0.519509 825:0.564546 826:0.5425 827:0.545282 828:0.575253 829:0.423565 830:0.44296 831:0.519465 832:0.568748 833:0.423431 834:0.724896 835:0.449619 836:0.19756 837:0.359851 838:0.631248 839:0.831044 840:0.409592 841:0.352966 842:0.296611 843:0.552217 844:0.276661 845:0.553036 846:0.253856 847:0.457991 848:0.560548 849:0.488045 850:0.333053 851:0.444039 852:0.40868 853:0.498714 854:0.692272 855:0.264058 856:0.362029 857:0.449261 858:0.448528 859:0.584743 860:0.480665 861:0.438566 862:0.673273 863:0.327937 864:0.563858 865:0.538884 866:0.383314 867:0.228278 868:0.591149 869:0.543798 870:0.49107 871:0.636029 872:0.360851 873:0.417395 874:0.618098 875:0.80154 876:0.247379 877:0.443701 878:0.588054 879:0.459933 880:0.449677 881:0.526564 882:0.945037 883:0.921005 884:0.66281 885:0.429191 886:0.556871 887:0.69805 888:0.699273 889:0.533609 890:0.613502 891:0.390918 892:0.382094 893:0.424871 894:0.679739 895:0.536279 896:0.413945 897:0.780279 898:0.498075 899:0.507328 900:0.729726 901:0.417871 902:0.257356 903:0.556463 904:0.442246 905:0.442293 906:0.534818 907:0.556063 908:0.520549 909:0.558865 910:0.385951 911:0.743155 912:0.644903 913:0.496671 914:0.599345 915:0.624484 916:0.532365 917:0.523429 918:0.42097 919:0.48316 920:0.317687 921:0.672635 922:0.583121 923:0.427689 924:0.639936 925:0.397926 926:0.645434 927:0.635793 928:0.587587 929:0.336085 930:0.398485 931:0.42775 932:0.500325 933:0.672063 934:0.467017 935:0.481288 936:0.754076 937:0.622488 938:0.438015 939:0.585623 940:0.356103 941:0.789853 942:0.714836 943:0.426001 944:0.583334 945:0.514831 946:0.589289 947:0.430053 948:0.258305 949:0.588513 950:0.673942 951:0.58943 952:0.500982 953:0.452085 954:0.34724 955:0.733931 956:0.494714 957:0.577121 958:0.644223 959:0.418842 960:0.567113 961:0.491189 962:0.574464 963:0.598022 964:0.676239 965:0.449834 966:0.754438 967:0.680594 968:0.799979 969:0.553856 970:0.448493 971:0.629159 972:0.46934 973:0.302428 974:0.517115 975:0.40501 976:0.403459 977:0.622017 978:0.47172 979:0.606584 980:0.942599 981:0.512047 982:0.463192 983:0.466251 984:0.266289 985:0.613805 986:0.762582 987:0.466391 988:0.308433 989:0.212391 990:0.618822 991:0.253421 992:0.420976 993:0.691305 994:0.599386 995:0.395895 996:0.749457 997:0.268582 998:0.355128 999:0.343833 1000:0.261576 1001:0.515841 1002:0.705596 1003:0.391098 1004:0.207862 1005:0.310173 1006:0.503609 1007:0.231206 1008:0.449745 1009:0.651707 1010:0.388724 1011:0.251034 1012:0.496485 1013:0.498584 1014:0.376919 1015:0.595093 1016:0.340113 1017:0.533808 1018:0.12503 1019:0.46768 1020:0.459358 1021:0.585883 1022:0.631626 1023:0.57381 1024:0.68517 1025:0.546796 1026:0.719073 1027:0.600438 1028:0.820138 1029:0.653221 1030:0.436901 1031:0.584741 1032:0.544379 1033:0.306539 1034:0.468136 1035:0.396147 1036:0.476835 1037:0.581006 1038:0.53277 1039:0.655096 1040:0.803899 1041:0.512965 1042:0.421127 1043:0.469395 1044:0.235386 1045:0.50782 1046:0.727602 1047:0.430003 1048:0.277655 1049:0.200516 1050:0.550735 1051:0.48305 1052:0.591692 1053:0.573502 1054:0.633029 1055:0.463022 1056:0.678 1057:0.673474 1058:0.842399 1059:0.530227 1060:0.515304 1061:0.625458 1062:0.567595 1063:0.320978 1064:0.488854 1065:0.446433 1066:0.479509 1067:0.553774 1068:0.450348 1069:0.613429 1070:0.654779 1071:0.490117 1072:0.402517 1073:0.585929 1074:0.300166 1075:0.554097 1076:0.826564 1077:0.631176 1078:0.417782 1079:0.205258 1080:0.652879 1081:0.65086 1082:0.704579 1083:0.459422 1084:0.708111 1085:0.432973 1086:0.797164 1087:0.537455 1088:0.481931 1089:0.565514 1090:0.710635 1091:0.630001 1092:0.693614 1093:0.43311 1094:0.339337 1095:0.72574 1096:0.625982 1097:0.681244 1098:0.590614 1099:0.403127 1100:0.519456 1101:0.569779 1102:0.339263 1103:0.661128 1104:0.478316 1105:0.550139 1106:0.602699 1107:0.823209 1108:0.558253 1109:0.592512 1110:0.536616 1111:0.37586 1112:0.678772 1113:0.569189 1114:0.382716 1115:0.229207 1116:0.776131 1117:0.514889 1118:0.445821 1119:0.542062 1120:0.568761 1121:0.52591 1122:0.0701468 1123:0.140994 1124:0.356735 1125:0.644187 1126:0.464643 1127:0.370029 1128:0.339563 1129:0.462346 1130:0.373247 1131:0.567117 1132:0.598523 1133:0.609718 1134:0.322399 1135:0.444206 1136:0.553171 1137:0.198646 1138:0.481385 1139:0.481685 1140:0.300127 1141:0.546872 1142:0.339636 1143:0.448701 1144:0.502719 1145:0.447187 1146:0.459947 1147:0.47369 1148:0.328928 1149:0.561014 1150:0.345246 1151:0.628955 1152:0.459947 1153:0.298501 1154:0.523902 1155:0.627978 1156:0.352568 1157:0.500108 1158:0.46533 1159:0.184026 1160:0.546872 1161:0.646637 1162:0.624134 1163:0.462631 1164:0.380387 1165:0.693349 1166:0.245937 1167:0.4934 1168:0.336766 1169:0.465114 1170:0.57057 1171:0.659299 1172:0.264427 1173:0.559083 1174:0.274511 1175:0.218662 1176:0.731969 1177:0.573365 1178:0.500469 1179:0.537185 1180:0.297391 1181:0.651386 1182:0.909156 1183:0.144462 1184:0.144462 1185:0.144462 1186:0.144462 1187:0.144462 1188:0.0269439 1189:0.0269439 1190:0.0269439 1191:0.0269439 1192:0.0269439 1193:0.155235 1194:0.155235 1195:0.155235 1196:0.155235 1197:0.155235 1198:0.0443698 1199:0.0443698 1200:0.0443698 1201:0.0443698 1202:0.0443698 1203:0.0438818 1204:0.0438818 1205:0.0438818 1206:0.0438818 1207:0.0438818 1208:0.155235 1209:0.155235 1210:0.155235 1211:0.155235 1212:0.155235 1213:0.155235 1214:0.155235 1215:0.155235 1216:0.155235 1217:0.155235 1218:0.0264767 1219:0.0264767 1220:0.0264767 1221:0.0264767 1222:0.0264767 1223:0.144462 1224:0.144462 1225:0.144462 1226:0.144462 1227:0.144462 1228:0.0443698 1229:0.0443698 1230:0.0443698 1231:0.0443698 1232:0.0443698 1233:0.073994 1234:0.073994 1235:0.073994 1236:0.073994 1237:0.073994 1238:0.155235 1239:0.155235 1240:0.155235 1241:0.155235 1242:0.155235 1243:0.0491229 1244:0.0491229 1245:0.0491229 1246:0.0491229 1247:0.0491229 1248:0.155235 1249:0.155235 1250:0.155235 1251:0.155235 1252:0.155235 1253:0.0158288 1254:0.0158288 1255:0.0158288 1256:0.0158288 1257:0.0158288 1258:0.155235 1259:0.155235 1260:0.155235 1261:0.155235 1262:0.155235 1263:0.016202 1264:0.016202 1265:0.016202 1266:0.016202 1267:0.016202 1268:0.0831759 1269:0.0831759 1270:0.0831759 1271:0.0831759 1272:0.0831759 1273:0.0543085 1274:0.0543085 1275:0.0543085 1276:0.0543085 1277:0.0543085 1278:0.144462 1279:0.144462 1280:0.144462 1281:0.144462 1282:0.144462 1283:0.155235 1284:0.155235 1285:0.155235 1286:0.155235 1287:0.155235 1289:0.166667 1290:0.166667 1293:0.5 1295:0.333333 1296:0.5 1297:0.166667 1298:0.583333 1299:0.2 1300:0.166667 1301:0.75 1302:0.333333 1303:0.166667 1304:0.333333 1306:0.833333 1310:0.166667 1311:0.25 1313:0.166667 1314:0.5 1317:0.5 1319:0.25 1320:0.166667 1321:0.416667 1323:0.583333 1324:0.333333 1325:0.166667 1328:0.666667 1330:0.5 1337:0.166667 1338:0.833333 1339:0.5 1340:0.166667 1341:0.333333 1342:0.166667 1344:0.5 1345:0.333333 1346:0.666667 1347:0.166667 1348:0.5 1349:0.333333 1351:0.666667 1352:0.333333 1353:0.666667 1354:0.833333 1355:0.214286 1358:0.166667 1359:0.333333 1360:0.666667 1361:0.5 1363:0.571429 1365:0.166667 1366:0.333333 1367:0.454545 1369:0.625 1372:0.333333 1373:0.5 1374:0.197917 1375:0.208333 1376:0.166667 1377:0.166667 1378:0.5 1379:1 1381:0.3 1386:0.333333 1389:0.416667 1390:0.666667 1391:0.333333 1392:0.75 1393:0.333333 1394:0.666667 1395:0.833333 1396:0.5 1397:0.422222 1398:0.208333 1400:0.583333 1401:1 1402:0.333333 1404:0.428571 1405:0.472222 1406:0.555556 1407:0.363636 1408:0.5 1410:0.217949 1411:0.466667 1412:0.333333 1413:0.555556 1415:0.777778 1416:0.333333 1417:0.444444 1418:0.666667 1422:0.388889 1423:0.333333 1424:0.555556 1426:0.266667 1433:1 1435:0.194444 1436:0.5 1437:0.222222 1438:0.25 1442:0.333333 1443:0.166667 1444:0.194444 1445:0.666667 1447:0.428571 1448:0.5 1449:0.2 1450:0.555556 1451:0.233333 1452:0.214286 1453:0.266667 1454:0.9375 1455:0.75 1456:0.5 1458:0.25 1461:0.25 1465:0.533333 1466:0.231481 1471:0.166667 1472:0.25 1473:0.4 1474:0.3125 1475:0.333333 1476:1 1479:0.652778 1485:0.5 1486:0.444444 1489:0.233333 1491:0.5 1492:0.166667 1493:0.666667 1494:0.416667 1495:0.166667 1496:0.333333 1499:0.166667 1500:0.333333 1501:0.7 1502:0.5 1503:0.333333 1506:0.625 1507:0.222222 1510:0.25 1512:0.833333 1513:0.219298 1515:0.208333 1516:0.5 1517:0.25 1520:0.166667 1521:0.75 1533:0.166667 1535:0.388889 1537:0.166667 1538:0.166667 1540:0.166667 1541:0.666667 1542:0.214286 1543:0.208333 1544:0.222222 1545:0.333333 1546:0.666667 1547:0.208333 1548:0.558824 1549:1 1550:0.222222 1551:0.25 1555:0.25 1556:0.8 1557:0.416667 1562:0.466667 1563:0.5 1566:0.291667 1569:0.333333 1570:0.466667 1572:0.75 1573:0.333333 1575:0.75 1577:1 1584:0.333333 1585:0.5 1587:1 1597:0.375 1598:0.25 1599:0.5 1601:0.833333 1619:0.75 1620:0.783333 1631:0.0944142 1632:0.100152 1633:0.109727 1634:0.101433 1635:0.097349 1636:0.0957665 1637:0.0955094 1638:0.0992657 1639:0.0931636 1640:0.0920956 1641:0.0999355 1642:0.103213 1643:0.0916291 1644:0.0999003 1645:0.0985183 1646:0.104352 1647:0.0958251 1648:0.0976385 1649:0.098558 1650:0.102952 1651:0.105778 1652:0.0977505 1653:0.0928783 1654:0.0903721 1655:0.0919481 1656:0.0959876 1657:0.101037 1658:0.0926635 1659:0.106255 1660:0.107676 1661:0.0881791 1662:0.0913622 1663:0.106607 1664:0.0930066 1665:0.0987699 1666:0.0984054 1667:0.0964407 1668:0.0984592 1669:0.102841 1670:0.0861147 1671:0.0999158 1672:0.105647 1673:0.0914337 1674:0.0961023 1675:0.101566 1676:0.0906015 1677:0.0987835 1678:0.0945472 1679:0.0947552 1680:0.0964081 1681:0.100586 1682:0.0950536 1683:0.0968004 1684:0.090577 1685:0.0956088 1686:0.0960838 1687:0.104724 1688:0.0901108 1689:0.0974936 1690:0.0967059 1691:0.0431669 1692:0.198123 1693:0.204892 1694:0.486412 1695:0.277904 1696:0.369189 1697:0.276352 1698:0.101751 1699:0.135519 1700:0.142509 1701:0.28788 1702:0.379303 1703:0.432619 1704:0.197843 1705:0.348949 1706:0.360754 1707:0.465592 1708:0.125689 1709:0.443017 1710:0.357428 1711:0.0574257 1712:0.131179 1713:0.233533 1714:0.481132 1715:0.34021 1716:0.276471 1717:0.292486 1718:0.0812141 1719:0.12671 1720:0.156255 1721:0.35082 1722:0.27949 1723:0.414141 1724:0.252955 1725:0.362712 1726:0.370032 1727:0.409962 1728:0.158537 1729:0.484615 1730:0.350009 1731:0.169186 1732:0.224977 1733:0.387785 1734:0.365815 1735:0.246207 1736:0.328491 1737:0.255341 1738:0.505639 1739:0.363024 1740:0.229959 1741:0.386866 1742:0.385671 1743:0.286776 1744:0.536831 1745:0.565578 1746:0.708852 1747:0.503301 1748:0.676795 1749:0.526185 1750:0.622744 1751:0.870174 1752:0.652382 1753:0.538666 1754:0.625666 1755:0.642085 1756:0.661646 1757:0.809255 1758:0.751567 1759:0.90228 1760:0.948424 1761:0.216064 1762:0.0994185 1763:0.314706 1764:0.246429 1765:0.245728 1766:0.234959 1767:0.33814 1768:0.375264 1769:0.267806 1770:0.237784 1771:0.45662 1772:0.510119 1773:0.349671 1774:0.6467 1775:0.650773 1776:0.579474 1777:0.532412 1778:0.515409 1779:0.641437 1780:0.492688 1781:0.750488 1782:0.624503 1783:0.53663 1784:0.573596 1785:0.794721 1786:0.763778 1787:0.813371 1788:0.795123 1789:0.646031 1790:0.804956 1791:0.0262199 1792:0.0774768 1793:0.05321 1794:0.0968905 1795:0.0370426 1796:0.13629 1797:0.0738614 1798:0.0391193 1799:0.0420324 1800:0.07281 1801:0.0905638 1802:0.159742 1803:0.167911 1804:0.0823313 1805:0.103405 1806:0.0841574 1807:0.0720961 1808:0.0546396 1809:0.140564 1810:0.0953079 1811:0.378049 1812:0.337329 1813:0.592574 1814:0.581213 1815:0.386933 1816:0.435141 1817:0.373016 1818:0.298336 1819:0.400184 1820:0.255609 1821:0.371363 1822:0.438667 1823:0.358138 1824:0.5224 1825:0.413435 1826:0.387421 1827:0.439777 1828:0.42759 1829:0.438125 1830:0.350556 1831:0.621195 1832:0.509474 1833:0.313957 1834:0.266398 1835:0.344838 1836:0.525785 1837:0.419208 1838:0.439815 1839:0.46606 1840:0.385151 1841:0.0292338 1842:0.0691738 1843:0.0558873 1844:0.0901588 1845:0.0389065 1846:0.126821 1847:0.082604 1848:0.0423785 1849:0.0476065 1850:0.0697609 1851:0.0839449 1852:0.168762 1853:0.18674 1854:0.0766112 1855:0.103425 1856:0.0948332 1857:0.0806297 1858:0.05054 1859:0.137775 1860:0.0879754 1861:0.570032 1862:0.611295 1863:0.600777 1864:0.572586 1865:0.404768 1866:0.268772 1867:0.257235 1868:0.50283 1869:0.549838 1870:0.478661 1871:0.48926 1872:0.548131 1873:0.293456 1874:0.433523 1875:0.551635 1876:0.477701 1877:0.287974 1878:0.462047 1879:0.463019 1880:0.473834 1881:0.488477 1882:0.253138 1883:0.287925 1884:0.251619 1885:0.516806 1886:0.615016 1887:0.503069 1888:0.455023 1889:0.459184 1890:0.535284 1891:0.431496 1892:0.381471 1893:0.215818 1894:0.531356 1895:0.477452 1896:0.38271 1897:0.549979 1898:0.551774 1899:0.450125 1900:0.426138 1901:0.295123 1902:0.32981 1903:0.262986 1904:0.416646 1905:0.611448 1906:0.570965 1907:0.54696 1908:0.422059 1909:0.559818 1910:0.556306 1911:0.574333 1912:0.435428 1913:0.489898 1914:0.414097 1915:0.434425 1916:0.482364 1917:0.340765 1918:0.344991 1919:0.668267 1920:0.439039 
9.001139118708776 1:0.215414 2:0.291613 3:0.194028 4:0.369981 5:0.159514 6:0.290392 7:0.19803 8:0.289833 9:0.302422 10:0.37719 11:0.431181 12:0.223042 13:0.297293 14:0.304207 15:0.503323 16:0.478671 17:0.564364 18:0.322863 19:0.42304 20:0.502553 21:0.108852 22:0.132057 23:0.0556938 24:0.0414673 26:0.0329709 27:0.0703349 28:0.232536 29:0.0937799 30:0.0544258 31:0.0937799 32:0.0574163 33:0.114833 35:0.125167 36:0.139075 37:0.0483254 38:0.113876 39:0.066268 40:0.205423 41:0.0440191 42:0.0759171 43:0.186603 44:0.038756 46:0.15311 47:0.0330144 48:0.545455 49:0.185167 50:0.128868 51:0.111005 52:0.0622009 53:0.198086 54:0.172249 55:0.120893 56:0.124402 57:0.0287081 59:0.192344 60:0.110048 61:0.0588517 62:0.155024 63:0.032 64:0.0660287 68:0.0478469 69:0.062201 70:0.320574 71:0.0669857 72:0.0669857 73:0.0894737 75:0.248804 76:0.0885168 77:0.0749601 78:0.11244 79:0.199522 80:0.0966507 81:0.0599681 82:0.165072 83:0.113876 84:0.14067 86:0.0822967 87:0.0486443 88:0.0555024 89:0.0524402 90:0.14067 91:0.1563 92:0.17512 93:0.0641148 94:0.0606061 95:0.056268 96:0.0937799 97:0.196364 99:0.0858054 100:0.120813 103:0.174163 105:0.205742 106:0.062201 108:0.0574163 110:0.0382775 111:0.164593 112:0.0870814 113:0.157416 115:0.0861882 120:0.123445 121:0.167464 122:0.0495215 123:0.178947 124:0.0880383 126:0.178628 127:0.076555 128:0.229665 130:0.0937799 131:0.0255183 132:0.166268 133:0.0382775 134:0.0443381 135:0.24689 136:0.314833 137:0.0937799 139:0.150718 140:0.22201 141:0.0937799 142:0.0641148 143:0.0516747 144:0.256459 147:0.0176198 148:0.101435 150:0.328421 151:0.267943 152:0.0449761 154:0.192344 155:0.104306 156:0.330144 157:0.186603 158:0.076555 159:0.0577353 160:0.076555 161:0.0677512 162:0.254545 163:0.049724 164:0.22488 165:0.0574163 166:0.0330144 167:0.159809 168:0.0325359 170:0.224402 171:0.271292 172:0.0311005 173:0.183158 174:0.284689 175:0.490772 176:0.046252 177:0.186603 178:0.227751 179:0.114833 180:0.227751 181:0.093142 183:0.15311 184:0.208852 185:0.182775 186:0.155024 187:0.067993 189:0.030941 190:0.119936 191:0.166507 192:0.124402 193:0.0913876 195:0.0574163 196:0.0822967 197:0.0483254 199:0.113876 200:0.100478 201:0.12823 202:0.077831 203:0.04 204:0.123445 205:0.269856 206:0.167464 207:0.0964593 208:0.165072 209:0.0641148 210:0.0711723 211:0.101162 212:0.209771 214:0.0590112 215:0.384689 216:0.341627 217:0.357895 219:0.124402 220:0.268421 221:0.061244 222:0.119936 223:0.0740032 224:0.106411 225:0.192208 226:0.230941 227:0.365072 228:0.261244 229:0.184689 230:0.401914 231:0.214354 232:0.21882 233:0.0492823 234:0.109091 235:0.259011 236:0.267943 237:0.18756 239:0.356459 240:0.12504 241:0.0311005 242:0.0666029 245:0.172249 246:0.116746 247:0.28134 248:0.0899521 249:0.0966507 250:0.227751 251:0.215885 252:0.0290271 253:0.186603 254:0.062201 255:0.401914 256:0.0548644 257:0.227751 260:0.0933014 261:0.12823 264:0.0937799 266:0.0456938 267:0.076555 268:0.186603 269:0.157416 270:0.12823 271:0.158852 272:0.099043 273:0.04689 274:0.0904306 275:0.200957 276:0.313636 277:0.062201 280:0.28134 281:0.326555 282:0.0759171 284:0.132057 285:0.0574163 286:0.0356459 288:0.12823 289:0.0478469 291:0.0327273 293:0.0870814 294:0.0641148 295:0.155024 296:0.252632 297:0.469537 300:0.107416 301:0.317512 302:0.287081 304:0.208612 306:0.329187 307:0.119936 308:0.154545 310:0.344498 311:0.386603 312:0.0564593 313:0.301435 314:0.143814 315:0.0448096 316:0.306073 317:0.269856 318:0.285168 319:0.0794259 320:0.359809 321:0.137161 322:0.174163 323:0.128797 324:0.0641148 326:0.154306 327:0.297847 328:0.367464 329:0.229665 330:0.239713 331:0.240032 332:0.159043 334:0.134928 335:0.3811 336:0.0937799 337:0.208612 338:0.269857 339:0.229665 340:0.116268 341:0.038756 342:0.128868 343:0.062201 344:0.15311 345:0.062201 346:0.18756 348:0.186603 349:0.186603 350:0.170335 351:0.269617 352:0.130622 353:0.22488 354:0.289952 355:0.359809 356:0.193301 357:0.205981 358:0.0698565 360:0.271292 362:0.113876 363:0.120574 364:0.307496 365:0.311962 366:0.0956938 371:0.0950558 372:0.0574163 375:0.0937799 377:0.129187 379:0.0899522 380:0.06252 382:0.062201 383:0.255502 384:0.0822967 387:0.181818 388:0.0687081 389:0.269856 390:0.140096 391:0.251196 392:0.0861244 394:0.198086 396:0.0641148 397:0.102775 398:0.155024 399:0.142584 400:0.0555024 401:0.0927166 402:0.182201 403:0.330144 404:0.105502 406:0.178628 407:0.0555024 408:0.113876 409:0.0617225 410:0.144976 411:0.327273 412:0.111005 413:0.062201 414:0.23445 415:0.22488 416:0.337321 417:0.421053 418:0.0956938 420:0.251866 421:0.326552 422:0.546407 423:0.327751 424:0.53657 425:0.309269 426:0.486525 427:0.33324 428:0.50282 429:0.233249 430:0.347836 431:0.264309 432:0.425178 433:0.538494 434:0.271859 435:0.416842 436:0.392444 437:0.549038 438:0.579069 439:0.347265 440:0.707636 441:0.300838 442:0.272584 443:0.530704 444:0.342228 445:0.597634 446:0.418639 447:0.426009 448:0.294967 449:0.570662 450:0.564122 451:0.357697 452:0.470511 453:0.31787 454:0.394101 455:0.327163 456:0.450854 457:0.498694 458:0.407838 459:0.269799 460:0.347151 461:0.363032 462:0.467185 463:0.359362 464:0.413427 465:0.397595 466:0.341801 467:0.44315 468:0.429168 469:0.557835 470:0.483491 471:0.581052 472:0.326636 473:0.491557 474:0.400645 475:0.461846 476:0.572099 477:0.401832 478:0.515576 479:0.644893 480:0.539059 481:0.292384 482:0.465448 483:0.276089 484:0.479023 485:0.427352 486:0.367892 487:0.472774 488:0.413425 489:0.347302 490:0.500847 491:0.346262 492:0.449666 493:0.586624 494:0.49524 495:0.554499 496:0.443913 497:0.546559 498:0.502885 499:0.511306 500:0.415274 501:0.447115 502:0.411361 503:0.517757 504:0.444654 505:0.535716 506:0.330834 507:0.452349 508:0.473637 509:0.580477 510:0.541983 511:0.660519 512:0.721606 513:0.256652 514:0.672292 515:0.539893 516:0.46719 517:0.579456 518:0.700514 519:0.575096 520:0.559454 521:0.656892 522:0.423211 523:0.64854 524:0.649816 525:0.63784 526:0.275094 527:0.704403 528:0.539777 529:0.372325 530:0.717183 531:0.549626 532:0.545128 533:0.578474 534:0.557254 535:0.663622 536:0.649689 537:0.592839 538:0.72901 539:0.495701 540:0.58057 541:0.234798 542:0.398149 543:0.294703 544:0.460859 545:0.395077 546:0.388723 547:0.506128 548:0.423437 549:0.396688 550:0.449772 551:0.382714 552:0.448086 553:0.595852 554:0.527131 555:0.610032 556:0.427203 557:0.570256 558:0.485905 559:0.593123 560:0.465041 561:0.408285 562:0.517644 563:0.582734 564:0.548427 565:0.54333 566:0.38103 567:0.531979 568:0.54817 569:0.575026 570:0.571835 571:0.212415 572:0.41686 573:0.273227 574:0.407915 575:0.394071 576:0.406359 577:0.470019 578:0.431359 579:0.354551 580:0.484076 581:0.296441 582:0.413402 583:0.619717 584:0.400694 585:0.634864 586:0.40085 587:0.54392 588:0.508735 589:0.430397 590:0.445511 591:0.516939 592:0.397623 593:0.472746 594:0.449419 595:0.575613 596:0.310228 597:0.390103 598:0.419144 599:0.516485 600:0.52887 601:0.122581 602:0.264262 603:0.242524 604:0.24484 605:0.32168 606:0.256414 607:0.456078 608:0.303189 609:0.271561 610:0.33585 611:0.358709 612:0.450987 613:0.462968 614:0.378263 615:0.434413 616:0.372801 617:0.378003 618:0.452233 619:0.471067 620:0.435064 621:0.480148 622:0.34616 623:0.38324 624:0.47033 625:0.615072 626:0.484252 627:0.428026 628:0.565812 629:0.326806 630:0.539054 631:0.348681 632:0.461156 633:0.441041 634:0.451104 635:0.300977 636:0.306964 637:0.243173 638:0.366772 639:0.412804 640:0.288405 641:0.252778 642:0.320135 643:0.470181 644:0.380899 645:0.384055 646:0.570261 647:0.48808 648:0.441393 649:0.303664 650:0.30777 651:0.464128 652:0.360826 653:0.466215 654:0.429622 655:0.293973 656:0.221052 657:0.410235 658:0.207192 659:0.50779 660:0.412589 661:0.421097 662:0.681669 663:0.469948 664:0.646581 665:0.333615 666:0.609425 667:0.412063 668:0.597451 669:0.40859 670:0.473712 671:0.293155 672:0.527282 673:0.655224 674:0.345037 675:0.455686 676:0.415616 677:0.486397 678:0.605573 679:0.46039 680:0.726528 681:0.410491 682:0.26725 683:0.684776 684:0.440383 685:0.690588 686:0.464661 687:0.468323 688:0.444289 689:0.639279 690:0.649297 691:0.554981 692:0.614339 693:0.426557 694:0.632236 695:0.390504 696:0.4675 697:0.712601 698:0.533165 699:0.351313 700:0.383927 701:0.461175 702:0.578703 703:0.549394 704:0.386684 705:0.680012 706:0.333979 707:0.639254 708:0.504116 709:0.540136 710:0.509349 711:0.551115 712:0.392875 713:0.615349 714:0.495688 715:0.579254 716:0.745386 717:0.452083 718:0.581838 719:0.737259 720:0.648069 721:0.320408 722:0.573545 723:0.367624 724:0.670719 725:0.588624 726:0.443249 727:0.520179 728:0.566789 729:0.429102 730:0.540256 731:0.396742 732:0.413553 733:0.666319 734:0.543931 735:0.684262 736:0.521114 737:0.597366 738:0.561668 739:0.504893 740:0.424656 741:0.486817 742:0.585891 743:0.661453 744:0.548692 745:0.600975 746:0.307382 747:0.528334 748:0.514351 749:0.739146 750:0.517304 751:0.718426 752:0.575687 753:0.338439 754:0.685897 755:0.636664 756:0.526385 757:0.53734 758:0.657892 759:0.648585 760:0.624092 761:0.556164 762:0.421759 763:0.695964 764:0.564861 765:0.760534 766:0.377981 767:0.54624 768:0.614215 769:0.500638 770:0.612041 771:0.581882 772:0.553286 773:0.605454 774:0.668544 775:0.670063 776:0.611516 777:0.667321 778:0.670312 779:0.459899 780:0.644186 781:0.248555 782:0.603566 783:0.394041 784:0.679874 785:0.604103 786:0.427045 787:0.531814 788:0.425487 789:0.431099 790:0.571833 791:0.421493 792:0.572917 793:0.638431 794:0.537191 795:0.700048 796:0.511082 797:0.566743 798:0.45747 799:0.555318 800:0.534534 801:0.450918 802:0.61914 803:0.647585 804:0.621157 805:0.628576 806:0.351831 807:0.703064 808:0.608413 809:0.721449 810:0.569527 811:0.335129 812:0.591648 813:0.388838 814:0.667489 815:0.588347 816:0.503957 817:0.600345 818:0.54205 819:0.499576 820:0.589153 821:0.401542 822:0.543854 823:0.699387 824:0.540426 825:0.640031 826:0.477071 827:0.570086 828:0.551586 829:0.454445 830:0.636101 831:0.55503 832:0.545289 833:0.572258 834:0.552125 835:0.592461 836:0.324365 837:0.450126 838:0.439506 839:0.718801 840:0.532891 841:0.349022 842:0.509634 843:0.42336 844:0.509138 845:0.576828 846:0.523198 847:0.664042 848:0.497269 849:0.469022 850:0.395272 851:0.545689 852:0.613974 853:0.585588 854:0.488666 855:0.438121 856:0.490379 857:0.54305 858:0.548914 859:0.594686 860:0.698646 861:0.476477 862:0.467992 863:0.514518 864:0.540056 865:0.727315 866:0.51844 867:0.428575 868:0.687075 869:0.495671 870:0.597019 871:0.550191 872:0.586132 873:0.43129 874:0.604078 875:0.475593 876:0.395055 877:0.369685 878:0.576333 879:0.676637 880:0.302044 881:0.42459 882:0.548967 883:0.578068 884:0.593406 885:0.482569 886:0.692139 887:0.593993 888:0.66145 889:0.454701 890:0.472011 891:0.453847 892:0.44197 893:0.479268 894:0.561031 895:0.407697 896:0.335228 897:0.538885 898:0.319431 899:0.538294 900:0.651598 901:0.586362 902:0.330051 903:0.560128 904:0.343097 905:0.687076 906:0.474003 907:0.600984 908:0.503556 909:0.651666 910:0.531881 911:0.714843 912:0.519458 913:0.377224 914:0.665313 915:0.55112 916:0.60545 917:0.51453 918:0.473993 919:0.563176 920:0.251121 921:0.583122 922:0.744421 923:0.383678 924:0.645468 925:0.320845 926:0.606288 927:0.582095 928:0.531408 929:0.315217 930:0.331623 931:0.477994 932:0.431181 933:0.604447 934:0.430458 935:0.628009 936:0.591558 937:0.398759 938:0.491721 939:0.747057 940:0.635065 941:0.547932 942:0.433195 943:0.445403 944:0.698885 945:0.385523 946:0.715962 947:0.396318 948:0.510057 949:0.479845 950:0.498558 951:0.506958 952:0.586017 953:0.447248 954:0.552433 955:0.384913 956:0.276555 957:0.525523 958:0.455777 959:0.321205 960:0.347684 961:0.692257 962:0.454987 963:0.637919 964:0.399545 965:0.416502 966:0.561269 967:0.474709 968:0.4815 969:0.574626 970:0.378919 971:0.605446 972:0.525376 973:0.294876 974:0.470115 975:0.31943 976:0.479782 977:0.570139 978:0.434526 979:0.458878 980:0.621516 981:0.460595 982:0.382789 983:0.316712 984:0.424129 985:0.433004 986:0.643128 987:0.390766 988:0.415597 989:0.243513 990:0.471931 991:0.285325 992:0.412498 993:0.650385 994:0.27304 995:0.358493 996:0.426209 997:0.466717 998:0.413662 999:0.458705 1000:0.295346 1001:0.407598 1002:0.555725 1003:0.361696 1004:0.388022 1005:0.28443 1006:0.613654 1007:0.4157 1008:0.501655 1009:0.516844 1010:0.323354 1011:0.358576 1012:0.422634 1013:0.476996 1014:0.332774 1015:0.366669 1016:0.319561 1017:0.437592 1018:0.252778 1019:0.561826 1020:0.464909 1021:0.754586 1022:0.422703 1023:0.613805 1024:0.356503 1025:0.385832 1026:0.624397 1027:0.487649 1028:0.591541 1029:0.567304 1030:0.390565 1031:0.536559 1032:0.499728 1033:0.311592 1034:0.487298 1035:0.268745 1036:0.487503 1037:0.501612 1038:0.536989 1039:0.519016 1040:0.576384 1041:0.483259 1042:0.307785 1043:0.317963 1044:0.355863 1045:0.442488 1046:0.617192 1047:0.333227 1048:0.363357 1049:0.239937 1050:0.403829 1051:0.670317 1052:0.426174 1053:0.629327 1054:0.32514 1055:0.406896 1056:0.505038 1057:0.4225 1058:0.511332 1059:0.507827 1060:0.386309 1061:0.547625 1062:0.46257 1063:0.263318 1064:0.451626 1065:0.357151 1066:0.515134 1067:0.493808 1068:0.455871 1069:0.55406 1070:0.456553 1071:0.430057 1072:0.388364 1073:0.389453 1074:0.42326 1075:0.359801 1076:0.668131 1077:0.505451 1078:0.537891 1079:0.261218 1080:0.496342 1081:0.653972 1082:0.491874 1083:0.591118 1084:0.475792 1085:0.400846 1086:0.508112 1087:0.313636 1088:0.516099 1089:0.560081 1090:0.638278 1091:0.498281 1092:0.449527 1093:0.312656 1094:0.491538 1095:0.546408 1096:0.451026 1097:0.536564 1098:0.461909 1099:0.354978 1100:0.267594 1101:0.500792 1102:0.456421 1103:0.433677 1104:0.455119 1105:0.344506 1106:0.422981 1107:0.588881 1108:0.449319 1109:0.592381 1110:0.399297 1111:0.464044 1112:0.443547 1113:0.557271 1114:0.401441 1115:0.529165 1116:0.629973 1117:0.586905 1118:0.452285 1119:0.323479 1120:0.699007 1121:0.600836 1122:0.444466 1123:0.470828 1124:0.413717 1125:0.579575 1126:0.340222 1127:0.452462 1128:0.367775 1129:0.534847 1130:0.476867 1131:0.501993 1132:0.526416 1133:0.555056 1134:0.435344 1135:0.570383 1136:0.631624 1137:0.433881 1138:0.643531 1139:0.444902 1140:0.365867 1141:0.296935 1142:0.558563 1143:0.477819 1144:0.637478 1145:0.377782 1146:0.394373 1147:0.48127 1148:0.556707 1149:0.338425 1150:0.519441 1151:0.556645 1152:0.394373 1153:0.233345 1154:0.694784 1155:0.403034 1156:0.221272 1157:0.58149 1158:0.571077 1159:0.456052 1160:0.296935 1161:0.664155 1162:0.520959 1163:0.341008 1164:0.566879 1165:0.650551 1166:0.38756 1167:0.369827 1168:0.541006 1169:0.370527 1170:0.453882 1171:0.670475 1172:0.479275 1173:0.442455 1174:0.304771 1175:0.20634 1176:0.469829 1177:0.391964 1178:0.578185 1179:0.725644 1180:0.318045 1181:0.772531 1182:0.568513 1183:0.0175177 1184:0.0175177 1185:0.0175177 1186:0.0175177 1187:0.0175177 1188:0.0120862 1189:0.0120862 1190:0.0120862 1191:0.0120862 1192:0.0120862 1193:0.0400061 1194:0.0400061 1195:0.0400061 1196:0.0400061 1197:0.0400061 1198:0.0107989 1199:0.0107989 1200:0.0107989 1201:0.0107989 1202:0.0107989 1203:0.0527667 1204:0.0527667 1205:0.0527667 1206:0.0527667 1207:0.0527667 1208:0.0400061 1209:0.0400061 1210:0.0400061 1211:0.0400061 1212:0.0400061 1213:0.0400061 1214:0.0400061 1215:0.0400061 1216:0.0400061 1217:0.0400061 1218:0.0116118 1219:0.0116118 1220:0.0116118 1221:0.0116118 1222:0.0116118 1223:0.0175177 1224:0.0175177 1225:0.0175177 1226:0.0175177 1227:0.0175177 1228:0.0107989 1229:0.0107989 1230:0.0107989 1231:0.0107989 1232:0.0107989 1233:0.0212707 1234:0.0212707 1235:0.0212707 1236:0.0212707 1237:0.0212707 1238:0.0400061 1239:0.0400061 1240:0.0400061 1241:0.0400061 1242:0.0400061 1243:0.00762042 1244:0.00762042 1245:0.00762042 1246:0.00762042 1247:0.00762042 1248:0.0400061 1249:0.0400061 1250:0.0400061 1251:0.0400061 1252:0.0400061 1253:0.00149707 1254:0.00149707 1255:0.00149707 1256:0.00149707 1257:0.00149707 1258:0.0400061 1259:0.0400061 1260:0.0400061 1261:0.0400061 1262:0.0400061 1263:0.0197553 1264:0.0197553 1265:0.0197553 1266:0.0197553 1267:0.0197553 1268:0.00562146 1269:0.00562146 1270:0.00562146 1271:0.00562146 1272:0.00562146 1273:0.0485518 1274:0.0485518 1275:0.0485518 1276:0.0485518 1277:0.0485518 1278:0.0175177 1279:0.0175177 1280:0.0175177 1281:0.0175177 1282:0.0175177 1283:0.0400061 1284:0.0400061 1285:0.0400061 1286:0.0400061 1287:0.0400061 1288:0.36 1289:0.68 1290:0.24 1291:0.16 1292:0.28 1293:0.28 1295:0.52 1296:0.48 1297:0.56 1298:0.186667 1299:0.432 1300:0.24 1302:0.2 1303:0.48 1304:0.32 1305:0.28 1306:0.16 1307:0.144 1309:0.04 1310:0.28 1311:0.36 1312:0.04 1313:0.08 1314:0.12 1315:0.12 1316:0.64 1317:0.36 1318:0.16 1319:0.12 1320:0.08 1323:0.326667 1324:0.08 1325:0.12 1326:0.14 1327:0.06 1328:0.16 1330:0.12 1337:0.64 1338:0.48 1339:0.4 1340:0.2 1341:0.44 1342:0.08 1343:0.12 1344:0.52 1345:0.68 1346:0.52 1347:0.2 1348:0.24 1349:0.28 1350:0.16 1351:0.52 1352:1 1353:0.32 1354:0.32 1355:0.308571 1356:0.36 1358:0.2 1359:0.2 1360:0.2 1361:0.08 1362:0.0533333 1363:0.182857 1364:0.12 1365:0.12 1366:0.16 1367:0.272727 1368:0.48 1369:0.2 1370:0.16 1371:0.04 1372:0.24 1373:0.24 1374:0.38 1375:0.1 1376:0.28 1377:0.2 1379:0.24 1380:0.16 1383:0.18 1385:0.16 1386:0.28 1387:0.52 1388:0.4 1389:0.1 1390:0.2 1391:0.16 1393:0.6 1394:0.56 1395:0.72 1396:0.24 1397:0.253333 1398:0.3 1399:0.096 1400:0.373333 1401:0.44 1402:0.16 1403:0.209231 1404:0.102857 1405:0.113333 1407:0.0872727 1408:0.44 1409:0.233333 1410:0.156923 1411:0.168 1412:0.4 1414:0.2 1415:0.186667 1416:0.12 1417:0.106667 1418:0.08 1419:0.288 1420:0.24 1421:0.16 1422:0.0933333 1423:0.08 1424:0.133333 1425:0.12 1426:0.064 1433:0.12 1435:0.186667 1437:0.32 1438:0.06 1439:0.04 1440:0.16 1442:0.2 1443:0.32 1444:0.373333 1445:0.266667 1446:0.133333 1447:0.257143 1448:0.24 1449:0.288 1450:0.355556 1451:0.056 1452:0.257143 1453:0.128 1456:0.12 1457:0.08 1458:0.18 1459:0.12 1460:0.0666667 1461:0.06 1463:0.24 1464:0.224 1465:0.064 1467:0.04 1469:0.12 1470:0.112 1471:0.2 1472:0.18 1474:0.15 1475:0.08 1479:0.156667 1480:0.2 1484:0.24 1485:0.52 1486:0.106667 1487:0.154286 1488:0.18 1489:0.112 1491:0.24 1492:0.2 1493:0.36 1494:0.15 1495:0.08 1496:0.24 1498:0.285714 1499:0.2 1500:0.24 1501:0.168 1502:0.18 1504:0.12 1505:0.28 1506:0.3 1507:0.106667 1508:0.0714286 1509:0.0555556 1510:0.06 1513:0.263158 1514:0.18 1515:0.05 1517:0.06 1519:0.08 1520:0.12 1521:0.06 1523:0.072 1524:0.12 1527:0.08 1529:0.12 1532:0.6 1533:0.28 1534:0.12 1535:0.14 1536:0.288 1537:0.2 1538:0.04 1540:0.16 1541:0.2 1542:0.257143 1544:0.16 1545:0.12 1546:0.16 1547:0.2 1548:0.178824 1549:0.192 1550:0.266667 1551:0.18 1555:0.12 1556:0.048 1557:0.3 1558:0.2 1561:0.12 1562:0.224 1563:0.36 1564:0.12 1565:0.072 1566:0.07 1568:0.112 1569:0.12 1570:0.224 1571:0.16 1572:0.18 1582:0.12 1585:0.12 1586:0.18 1589:0.08 1590:0.0933333 1591:0.0933333 1593:0.04 1594:0.17 1600:0.12 1604:0.32 1611:0.18 1622:0.094 1625:0.48 1631:0.323005 1632:0.324233 1633:0.317701 1634:0.293647 1635:0.324307 1636:0.315035 1637:0.293871 1638:0.304138 1639:0.318943 1640:0.324841 1641:0.312868 1642:0.32453 1643:0.315127 1644:0.335592 1645:0.317458 1646:0.331171 1647:0.331755 1648:0.324168 1649:0.310191 1650:0.307713 1651:0.310448 1652:0.313649 1653:0.309403 1654:0.311645 1655:0.301726 1656:0.317347 1657:0.314383 1658:0.304524 1659:0.322755 1660:0.315596 1661:0.293497 1662:0.295646 1663:0.3166 1664:0.279001 1665:0.321313 1666:0.307024 1667:0.282676 1668:0.292913 1669:0.331792 1670:0.280595 1671:0.319038 1672:0.311039 1673:0.286101 1674:0.307772 1675:0.297323 1676:0.291109 1677:0.305834 1678:0.319631 1679:0.30127 1680:0.296725 1681:0.28954 1682:0.307544 1683:0.300581 1684:0.298771 1685:0.290088 1686:0.292424 1687:0.326765 1688:0.273933 1689:0.328429 1690:0.287092 1691:0.161734 1692:0.292738 1693:0.182698 1694:0.343782 1695:0.143885 1696:0.263652 1697:0.150419 1698:0.304023 1699:0.304049 1700:0.284748 1701:0.302797 1702:0.208095 1703:0.246107 1704:0.229699 1705:0.437984 1706:0.370699 1707:0.489426 1708:0.260302 1709:0.35288 1710:0.385704 1711:0.192362 1712:0.192015 1713:0.209581 1714:0.34434 1715:0.177972 1716:0.19902 1717:0.160694 1718:0.271261 1719:0.286971 1720:0.315269 1721:0.372131 1722:0.153029 1723:0.237807 1724:0.295508 1725:0.459322 1726:0.38593 1727:0.434866 1728:0.330894 1729:0.392308 1730:0.380636 1731:0.213915 1732:0.179222 1733:0.265293 1734:0.100445 1735:0.272853 1736:0.346572 1737:0.168979 1738:0.382776 1739:0.454831 1740:0.482362 1741:0.327403 1742:0.33897 1743:0.367666 1744:0.673064 1745:0.579369 1746:0.737798 1747:0.736029 1748:0.77374 1749:0.434854 1750:0.489701 1751:0.734092 1752:0.686455 1753:0.658705 1754:0.806277 1755:0.724357 1756:0.762412 1757:0.819926 1758:0.848039 1759:0.879596 1760:0.780478 1761:0.295476 1762:0.101352 1763:0.206757 1764:0.136544 1765:0.282154 1766:0.168845 1767:0.211629 1768:0.265561 1769:0.347832 1770:0.329657 1771:0.481669 1772:0.316224 1773:0.339801 1774:0.719729 1775:0.473513 1776:0.63861 1777:0.525457 1778:0.749448 1779:0.691155 1780:0.439024 1781:0.599923 1782:0.759816 1783:0.538659 1784:0.736088 1785:0.76278 1786:0.763735 1787:0.855167 1788:0.788788 1789:0.84258 1790:0.711699 1791:0.164014 1792:0.318847 1793:0.131939 1794:0.190428 1795:0.0533327 1796:0.270657 1797:0.111797 1798:0.238602 1799:0.26224 1800:0.377008 1801:0.274209 1802:0.270088 1803:0.287701 1804:0.265812 1805:0.360917 1806:0.24383 1807:0.210748 1808:0.314673 1809:0.311352 1810:0.286571 1811:0.571228 1812:0.33705 1813:0.505211 1814:0.41601 1815:0.52529 1816:0.573746 1817:0.40011 1818:0.415679 1819:0.550715 1820:0.562162 1821:0.372903 1822:0.365767 1823:0.473025 1824:0.619065 1825:0.415594 1826:0.514693 1827:0.55842 1828:0.509219 1829:0.421074 1830:0.29877 1831:0.541731 1832:0.500217 1833:0.430567 1834:0.416908 1835:0.388516 1836:0.550821 1837:0.423507 1838:0.46858 1839:0.401875 1840:0.257712 1841:0.207709 1842:0.321684 1843:0.156632 1844:0.200283 1845:0.063314 1846:0.284664 1847:0.141318 1848:0.284922 1849:0.335711 1850:0.398662 1851:0.287557 1852:0.324029 1853:0.364283 1854:0.279568 1855:0.408018 1856:0.309196 1857:0.2664 1858:0.328983 1859:0.344934 1860:0.301145 1861:0.417799 1862:0.46515 1863:0.564259 1864:0.4965 1865:0.458524 1866:0.410681 1867:0.332128 1868:0.521018 1869:0.398536 1870:0.210316 1871:0.366626 1872:0.321751 1873:0.241745 1874:0.41965 1875:0.412771 1876:0.408556 1877:0.25858 1878:0.321595 1879:0.285983 1880:0.205486 1881:0.478493 1882:0.301805 1883:0.358915 1884:0.350491 1885:0.54237 1886:0.432438 1887:0.465738 1888:0.304084 1889:0.48535 1890:0.437793 1891:0.344852 1892:0.27267 1893:0.230387 1894:0.296298 1895:0.399541 1896:0.306048 1897:0.536267 1898:0.517281 1899:0.449093 1900:0.36933 1901:0.405078 1902:0.397051 1903:0.264803 1904:0.333508 1905:0.491112 1906:0.411645 1907:0.456652 1908:0.340467 1909:0.510258 1910:0.459643 1911:0.575348 1912:0.357305 1913:0.480017 1914:0.340684 1915:0.486434 1916:0.40297 1917:0.366034 1918:0.409734 1919:0.687227 1920:0.595716 
1.547428272027124 1:0.231179 2:0.176407 3:0.337609 4:0.508014 5:0.162782 6:0.366899 7:0.214761 8:0.121923 9:0.279791 10:0.383623 11:0.461091 12:0.401545 13:0.257304 14:0.425505 15:0.256818 16:0.593168 17:0.558734 18:0.254953 19:0.370035 20:0.341973 21:0.0339958 22:0.0481171 23:0.2841 24:0.0453278 25:0.134589 26:0.0720806 27:0.0512552 28:0.0564854 29:0.136681 30:0.317294 31:0.0683403 32:0.104603 33:0.083682 34:0.170851 35:0.121618 36:0.152022 37:0.281729 38:0.0829847 39:0.144874 40:0.0748489 41:0.016039 43:0.226639 44:0.0564854 45:0.0209205 46:0.055788 47:0.0962343 48:0.105997 49:0.0899581 50:0.0939098 51:0.0808926 52:0.0906555 53:0.0481171 54:0.167364 56:0.060437 57:0.188285 58:0.104602 60:0.0481171 61:0.085774 62:0.338912 63:0.0233194 64:0.240586 65:0.115586 66:0.246862 67:0.027894 68:0.209205 70:0.0934449 71:0.317294 72:0.122036 73:0.130404 74:0.0564854 75:0.181311 76:0.290272 77:0.109252 80:0.246513 81:0.0437006 82:0.120293 83:0.165969 84:0.273361 86:0.119944 87:0.141795 88:0.121339 89:0.0764296 90:0.0341702 91:0.1139 92:0.212692 93:0.140167 94:0.264993 95:0.205021 96:0.273361 97:0.286192 98:0.209205 100:0.0528243 101:0.0660158 102:0.041841 103:0.126918 104:0.136681 105:0.0749651 106:0.0906555 107:0.119944 108:0.083682 110:0.013947 111:0.179916 112:0.0634588 114:0.0453278 115:0.062808 117:0.0672943 120:0.0449791 121:0.122036 122:0.0481172 123:0.326011 124:0.256625 126:0.074384 127:0.223152 128:0.125523 129:0.0341702 130:0.0911204 131:0.167364 132:0.242329 133:0.111576 134:0.226174 135:0.119944 136:0.393305 137:0.239191 138:0.0683403 139:0.0732218 140:0.161785 141:0.10251 142:0.0467225 143:0.112971 144:0.0934449 146:0.0753138 147:0.0192601 148:0.0369595 150:0.598326 151:0.167364 152:0.131102 153:0.0240586 154:0.233612 155:0.114017 156:0.192469 157:0.226639 159:0.0420734 160:0.111576 161:0.246862 162:0.0309158 163:0.0362354 164:0.131102 165:0.041841 166:0.120293 168:0.00592747 169:0.0906555 170:0.18689 171:0.169456 172:0.0906555 173:0.0444909 174:0.207462 175:0.0357641 176:0.134821 177:0.0453277 179:0.083682 180:0.0622385 181:0.0678754 182:0.104602 183:0.167364 186:0.0564854 187:0.0495486 188:0.0519526 189:0.0225477 190:0.0437006 191:0.161785 192:0.0906555 193:0.0665969 195:0.041841 196:0.479777 199:0.165969 200:0.0732218 201:0.0700837 202:0.113436 203:0.116597 204:0.239888 205:0.0655509 206:0.244073 207:0.140586 208:0.0962343 209:0.233612 210:0.0518654 211:0.1843 212:0.283895 213:0.0453278 214:0.0860065 215:0.18689 216:0.0829847 217:0.260809 218:0.0793236 219:0.226639 220:0.195607 221:0.0892608 222:0.152952 223:0.215714 224:0.232636 225:0.280135 226:0.252441 227:0.190028 228:0.190377 229:0.179451 230:0.219665 231:0.136681 232:0.227801 233:0.107741 234:0.0596234 235:0.0808926 236:0.334728 237:0.444212 238:0.169456 239:0.259763 240:0.159461 241:0.135983 242:0.0970711 243:0.182183 244:0.171083 245:0.251046 246:0.25523 247:0.307531 248:0.109251 249:0.0704324 250:0.290446 251:0.340865 252:0.0846118 253:0.135983 254:0.271967 255:0.209205 256:0.199907 257:0.165969 258:0.041841 259:0.125523 260:0.158647 261:0.0934449 262:0.055788 266:0.166492 267:0.223152 268:0.0906555 270:0.18689 271:0.11576 272:0.0721757 275:0.146443 276:0.228556 277:0.0906555 279:0.0652022 280:0.136681 281:0.237971 282:0.110646 283:0.317294 284:0.240586 285:0.083682 286:0.129881 287:0.0467225 288:0.0622966 289:0.0348675 290:0.14744 291:0.166946 292:0.427708 293:0.0634588 294:0.0934449 295:0.0564854 296:0.1841 297:0.0855416 298:0.0850767 299:0.0683403 300:0.195694 301:0.165272 302:0.167364 303:0.112971 304:0.0506741 306:0.0599721 307:0.0437006 308:0.0844665 309:0.205021 310:0.209205 311:0.316946 312:0.246862 313:0.043933 314:0.209603 315:0.0326542 316:0.0247827 317:0.0655509 320:0.131102 321:0.159926 322:0.0951883 323:0.375433 324:0.233612 325:0.0899581 326:0.224895 327:0.13023 328:0.208275 329:0.083682 330:0.349372 331:0.324849 332:0.463598 333:0.0808926 334:0.229428 335:0.185146 336:0.250581 337:0.228033 339:0.292887 340:0.169456 341:0.084728 342:0.0234775 343:0.135983 344:0.502092 346:0.205021 347:0.202232 348:0.0679916 349:0.0906555 350:0.248257 351:0.224547 352:0.158647 353:0.273129 354:0.352162 355:0.131102 356:0.352162 357:0.187631 359:0.083682 360:0.169456 361:0.0829847 362:0.0829847 364:0.224082 366:0.13947 367:0.0794979 371:0.0692701 372:0.083682 375:0.0683403 376:0.041841 380:0.0455602 381:0.0627615 382:0.0453278 383:0.310321 386:0.140167 387:0.0662482 389:0.196653 390:0.051046 391:0.0732218 392:0.104603 393:0.285565 394:0.0962343 395:0.0453278 396:0.0467225 397:0.0748954 398:0.112971 399:0.0519526 400:0.0808926 401:0.152022 403:0.0962343 404:0.0256276 406:0.167364 407:0.0404463 408:0.103731 409:0.0449791 410:0.211297 411:0.238494 412:0.121339 414:0.170851 415:0.0983263 416:0.450662 417:0.306834 419:0.043933 420:0.183543 421:0.384587 422:0.485795 423:0.446132 424:0.407783 425:0.489646 426:0.421767 427:0.30025 428:0.441978 429:0.629858 430:0.422078 431:0.393069 432:0.440148 433:0.49702 434:0.296125 435:0.459266 436:0.389479 437:0.504836 438:0.520693 439:0.587898 440:0.643827 441:0.178356 442:0.652776 443:0.503477 444:0.335396 445:0.683891 446:0.533829 447:0.478076 448:0.284674 449:0.579357 450:0.528134 451:0.210411 452:0.345216 453:0.319114 454:0.277608 455:0.346493 456:0.362507 457:0.338894 458:0.29952 459:0.364477 460:0.423581 461:0.297001 462:0.430164 463:0.357988 464:0.301607 465:0.328428 466:0.313346 467:0.3296 468:0.399556 469:0.472315 470:0.390528 471:0.355423 472:0.408301 473:0.545449 474:0.453091 475:0.389882 476:0.423046 477:0.290655 478:0.453585 479:0.528646 480:0.532824 481:0.365345 482:0.318921 483:0.209873 484:0.378299 485:0.399774 486:0.334745 487:0.400103 488:0.31487 489:0.422212 490:0.414517 491:0.403178 492:0.392617 493:0.48896 494:0.390492 495:0.496666 496:0.409738 497:0.536862 498:0.46525 499:0.455811 500:0.317563 501:0.364594 502:0.293233 503:0.360253 504:0.35755 505:0.443542 506:0.33433 507:0.333752 508:0.417629 509:0.468521 510:0.459784 511:0.509999 512:0.630038 513:0.22022 514:0.53118 515:0.423723 516:0.366735 517:0.419242 518:0.577217 519:0.512434 520:0.471664 521:0.572822 522:0.274969 523:0.460922 524:0.634383 525:0.374083 526:0.191012 527:0.6534 528:0.410472 529:0.272215 530:0.62274 531:0.39053 532:0.369484 533:0.421597 534:0.377097 535:0.476683 536:0.52231 537:0.377238 538:0.554796 539:0.455409 540:0.381255 541:0.291724 542:0.230901 543:0.211271 544:0.343901 545:0.317638 546:0.364426 547:0.407957 548:0.330784 549:0.410661 550:0.341598 551:0.393799 552:0.400372 553:0.489877 554:0.44892 555:0.504703 556:0.372409 557:0.558446 558:0.464562 559:0.516931 560:0.320395 561:0.337445 562:0.336323 563:0.433387 564:0.457084 565:0.416463 566:0.320906 567:0.389551 568:0.466896 569:0.446657 570:0.474902 571:0.277323 572:0.263407 573:0.210121 574:0.299968 575:0.362619 576:0.377145 577:0.367386 578:0.339086 579:0.412529 580:0.38567 581:0.388107 582:0.351526 583:0.519908 584:0.332341 585:0.580768 586:0.304028 587:0.536644 588:0.509672 589:0.41467 590:0.359342 591:0.409394 592:0.337217 593:0.289801 594:0.312879 595:0.49196 596:0.304674 597:0.307953 598:0.357302 599:0.411023 600:0.446965 601:0.10299 602:0.188548 603:0.256045 604:0.183624 605:0.279542 606:0.195492 607:0.270178 608:0.274518 609:0.313492 610:0.283847 611:0.368743 612:0.400525 613:0.351716 614:0.394704 615:0.385899 616:0.266123 617:0.297821 618:0.493129 619:0.370976 620:0.321099 621:0.394763 622:0.378778 623:0.331997 624:0.421712 625:0.530737 626:0.41654 627:0.323482 628:0.46951 629:0.291803 630:0.530716 631:0.400486 632:0.398908 633:0.441102 634:0.545278 635:0.425411 636:0.389174 637:0.311167 638:0.458723 639:0.454193 640:0.41431 641:0.491852 642:0.423565 643:0.47972 644:0.372697 645:0.578748 646:0.495717 647:0.405267 648:0.494103 649:0.573933 650:0.375935 651:0.536138 652:0.374407 653:0.511384 654:0.460753 655:0.372165 656:0.535179 657:0.517375 658:0.298681 659:0.464274 660:0.503882 661:0.458419 662:0.589296 663:0.556262 664:0.463932 665:0.481377 666:0.498865 667:0.347156 668:0.521961 669:0.678647 670:0.541795 671:0.396843 672:0.515483 673:0.586957 674:0.357717 675:0.469811 676:0.392058 677:0.425597 678:0.52373 679:0.676419 680:0.624331 681:0.241348 682:0.608103 683:0.6371 684:0.409325 685:0.753158 686:0.552479 687:0.49405 688:0.409443 689:0.629825 690:0.579984 691:0.373299 692:0.495674 693:0.490557 694:0.503944 695:0.481453 696:0.404747 697:0.54907 698:0.441068 699:0.562973 700:0.582267 701:0.435352 702:0.567719 703:0.611413 704:0.310626 705:0.64318 706:0.351849 707:0.531298 708:0.519396 709:0.497258 710:0.463583 711:0.373362 712:0.548037 713:0.741712 714:0.635211 715:0.540567 716:0.624801 717:0.370156 718:0.560823 719:0.615014 720:0.693274 721:0.483393 722:0.368011 723:0.291804 724:0.574967 725:0.586606 726:0.444772 727:0.453393 728:0.498494 729:0.592762 730:0.463326 731:0.518529 732:0.38412 733:0.57226 734:0.429965 735:0.657292 736:0.513874 737:0.642131 738:0.545529 739:0.479593 740:0.331249 741:0.411872 742:0.481547 743:0.466686 744:0.470886 745:0.51824 746:0.354319 747:0.424233 748:0.491438 749:0.628216 750:0.46166 751:0.561193 752:0.526837 753:0.368023 754:0.573921 755:0.616995 756:0.525102 757:0.41323 758:0.606442 759:0.698465 760:0.602856 761:0.562624 762:0.378042 763:0.545133 764:0.646868 765:0.561951 766:0.330401 767:0.571143 768:0.576521 769:0.492787 770:0.550085 771:0.533329 772:0.479655 773:0.465558 774:0.545575 775:0.496888 776:0.563522 777:0.481403 778:0.553081 779:0.54038 780:0.568635 781:0.422532 782:0.367821 783:0.297294 784:0.600505 785:0.537411 786:0.463863 787:0.454792 788:0.382895 789:0.546446 790:0.485058 791:0.502544 792:0.595352 793:0.549032 794:0.484209 795:0.652626 796:0.498701 797:0.639888 798:0.482378 799:0.52041 800:0.422903 801:0.419111 802:0.495086 803:0.510144 804:0.570854 805:0.535775 806:0.348185 807:0.568602 808:0.574661 809:0.623264 810:0.516593 811:0.472998 812:0.360495 813:0.311308 814:0.5255 815:0.577138 816:0.513045 817:0.478442 818:0.47734 819:0.625682 820:0.491245 821:0.604261 822:0.501441 823:0.597185 824:0.491421 825:0.613694 826:0.378594 827:0.610142 828:0.583647 829:0.47584 830:0.570093 831:0.454242 832:0.522662 833:0.394809 834:0.432661 835:0.530791 836:0.35895 837:0.391512 838:0.410257 839:0.622845 840:0.479852 841:0.298199 842:0.388808 843:0.465007 844:0.423692 845:0.503524 846:0.411032 847:0.361422 848:0.453429 849:0.53879 850:0.345688 851:0.583432 852:0.556627 853:0.453332 854:0.518492 855:0.392012 856:0.341054 857:0.425093 858:0.624666 859:0.478751 860:0.536829 861:0.396437 862:0.504685 863:0.467256 864:0.481534 865:0.607376 866:0.445927 867:0.344164 868:0.606006 869:0.438657 870:0.604165 871:0.533801 872:0.421655 873:0.361858 874:0.625993 875:0.544398 876:0.406437 877:0.353528 878:0.609709 879:0.637985 880:0.376833 881:0.671765 882:0.613858 883:0.489679 884:0.477573 885:0.588888 886:0.481738 887:0.417885 888:0.634339 889:0.657065 890:0.453996 891:0.45124 892:0.379573 893:0.46034 894:0.526707 895:0.40326 896:0.564688 897:0.572164 898:0.359942 899:0.433296 900:0.673156 901:0.549053 902:0.423339 903:0.475359 904:0.521931 905:0.524061 906:0.580938 907:0.659998 908:0.577879 909:0.376347 910:0.465288 911:0.616124 912:0.523685 913:0.440312 914:0.64879 915:0.533201 916:0.623716 917:0.564025 918:0.548679 919:0.327221 920:0.354518 921:0.739444 922:0.394742 923:0.429131 924:0.674465 925:0.257376 926:0.521458 927:0.550512 928:0.559284 929:0.322249 930:0.398691 931:0.666748 932:0.563958 933:0.548427 934:0.562285 935:0.539652 936:0.653011 937:0.544842 938:0.580857 939:0.510509 940:0.444823 941:0.572443 942:0.439846 943:0.386359 944:0.767696 945:0.415179 946:0.692864 947:0.485029 948:0.485981 949:0.517624 950:0.53933 951:0.673107 952:0.421553 953:0.30419 954:0.417061 955:0.414916 956:0.399229 957:0.603144 958:0.471014 959:0.4381 960:0.299433 961:0.52692 962:0.657383 963:0.712585 964:0.481729 965:0.416924 966:0.557101 967:0.541818 968:0.539166 969:0.408995 970:0.44768 971:0.453788 972:0.546348 973:0.383265 974:0.572128 975:0.339534 976:0.478651 977:0.522757 978:0.446016 979:0.488219 980:0.711016 981:0.539475 982:0.484445 983:0.507068 984:0.502125 985:0.519754 986:0.598012 987:0.492699 988:0.443087 989:0.345483 990:0.525181 991:0.44541 992:0.462714 993:0.622411 994:0.392503 995:0.379936 996:0.433266 997:0.570471 998:0.457459 999:0.422909 1000:0.311101 1001:0.40347 1002:0.599941 1003:0.512047 1004:0.32083 1005:0.49438 1006:0.672521 1007:0.405642 1008:0.546576 1009:0.531725 1010:0.386625 1011:0.39202 1012:0.479066 1013:0.588853 1014:0.458156 1015:0.569982 1016:0.34817 1017:0.571014 1018:0.342911 1019:0.491152 1020:0.534521 1021:0.580623 1022:0.656377 1023:0.702041 1024:0.428265 1025:0.44986 1026:0.583659 1027:0.568334 1028:0.623583 1029:0.443905 1030:0.45704 1031:0.432715 1032:0.467721 1033:0.396032 1034:0.535483 1035:0.304534 1036:0.491165 1037:0.427682 1038:0.510356 1039:0.554052 1040:0.670371 1041:0.517581 1042:0.42784 1043:0.451446 1044:0.406001 1045:0.52314 1046:0.62315 1047:0.450054 1048:0.396332 1049:0.329644 1050:0.449858 1051:0.530838 1052:0.659808 1053:0.706061 1054:0.464953 1055:0.415007 1056:0.491535 1057:0.559924 1058:0.565413 1059:0.380778 1060:0.471325 1061:0.319267 1062:0.491546 1063:0.360298 1064:0.492709 1065:0.375764 1066:0.594863 1067:0.442371 1068:0.419089 1069:0.534384 1070:0.513823 1071:0.525139 1072:0.411628 1073:0.568911 1074:0.547324 1075:0.426902 1076:0.636564 1077:0.56532 1078:0.567891 1079:0.356477 1080:0.549119 1081:0.70652 1082:0.61258 1083:0.538918 1084:0.552005 1085:0.463479 1086:0.608309 1087:0.597693 1088:0.538438 1089:0.46215 1090:0.668606 1091:0.440301 1092:0.495408 1093:0.437553 1094:0.449303 1095:0.57691 1096:0.5973 1097:0.65838 1098:0.381931 1099:0.465145 1100:0.412932 1101:0.568561 1102:0.41967 1103:0.474023 1104:0.508648 1105:0.44096 1106:0.489225 1107:0.664067 1108:0.504509 1109:0.639213 1110:0.387601 1111:0.48153 1112:0.614291 1113:0.629511 1114:0.379058 1115:0.462882 1116:0.616548 1117:0.598259 1118:0.4123 1119:0.354977 1120:0.62347 1121:0.356601 1122:0.373833 1123:0.546742 1124:0.513532 1125:0.46133 1126:0.509727 1127:0.601651 1128:0.381676 1129:0.313539 1130:0.486128 1131:0.49975 1132:0.59366 1133:0.570296 1134:0.465424 1135:0.569794 1136:0.387321 1137:0.396567 1138:0.599975 1139:0.541938 1140:0.342781 1141:0.466707 1142:0.40674 1143:0.461542 1144:0.531012 1145:0.437048 1146:0.43999 1147:0.453291 1148:0.402752 1149:0.509087 1150:0.510229 1151:0.52801 1152:0.43999 1153:0.272505 1154:0.577274 1155:0.566197 1156:0.300346 1157:0.537498 1158:0.503001 1159:0.355943 1160:0.466707 1161:0.553377 1162:0.495295 1163:0.516648 1164:0.396782 1165:0.593183 1166:0.312091 1167:0.512177 1168:0.38802 1169:0.520988 1170:0.486828 1171:0.618538 1172:0.39943 1173:0.555244 1174:0.324012 1175:0.264644 1176:0.679868 1177:0.602216 1178:0.557771 1179:0.550286 1180:0.414116 1181:0.610909 1182:0.651272 1183:0.0199486 1184:0.0199486 1185:0.0199486 1186:0.0199486 1187:0.0199486 1188:0.0116507 1189:0.0116507 1190:0.0116507 1191:0.0116507 1192:0.0116507 1193:0.02389 1194:0.02389 1195:0.02389 1196:0.02389 1197:0.02389 1198:0.018729 1199:0.018729 1200:0.018729 1201:0.018729 1202:0.018729 1203:0.00317759 1204:0.00317759 1205:0.00317759 1206:0.00317759 1207:0.00317759 1208:0.02389 1209:0.02389 1210:0.02389 1211:0.02389 1212:0.02389 1213:0.02389 1214:0.02389 1215:0.02389 1216:0.02389 1217:0.02389 1218:0.0111761 1219:0.0111761 1220:0.0111761 1221:0.0111761 1222:0.0111761 1223:0.0199486 1224:0.0199486 1225:0.0199486 1226:0.0199486 1227:0.0199486 1228:0.018729 1229:0.018729 1230:0.018729 1231:0.018729 1232:0.018729 1233:0.00728729 1234:0.00728729 1235:0.00728729 1236:0.00728729 1237:0.00728729 1238:0.02389 1239:0.02389 1240:0.02389 1241:0.02389 1242:0.02389 1243:0.00209889 1244:0.00209889 1245:0.00209889 1246:0.00209889 1247:0.00209889 1248:0.02389 1249:0.02389 1250:0.02389 1251:0.02389 1252:0.02389 1253:0.00498496 1254:0.00498496 1255:0.00498496 1256:0.00498496 1257:0.00498496 1258:0.02389 1259:0.02389 1260:0.02389 1261:0.02389 1262:0.02389 1263:0.0137544 1264:0.0137544 1265:0.0137544 1266:0.0137544 1267:0.0137544 1268:0.00944617 1269:0.00944617 1270:0.00944617 1271:0.00944617 1272:0.00944617 1273:0.00231968 1274:0.00231968 1275:0.00231968 1276:0.00231968 1277:0.00231968 1278:0.0199486 1279:0.0199486 1280:0.0199486 1281:0.0199486 1282:0.0199486 1283:0.02389 1284:0.02389 1285:0.02389 1286:0.02389 1287:0.02389 1288:0.368421 1289:0.631579 1290:0.315789 1291:0.368421 1292:0.315789 1293:0.315789 1295:0.368421 1296:0.684211 1297:0.368421 1298:0.675439 1299:0.884211 1300:0.578947 1302:0.526316 1303:0.631579 1304:0.578947 1305:0.442105 1306:0.263158 1307:0.378947 1309:0.157895 1310:0.315789 1311:0.157895 1312:0.315789 1313:0.105263 1314:0.0789474 1316:0.105263 1317:0.315789 1318:0.157895 1319:0.315789 1320:0.210526 1321:0.0657895 1323:0.184211 1324:0.263158 1325:0.315789 1326:0.184211 1327:0.394737 1328:0.210526 1331:0.210526 1332:0.184211 1337:0.631579 1338:0.789474 1339:0.684211 1340:0.210526 1341:0.315789 1342:0.210526 1343:0.157895 1344:0.789474 1345:0.789474 1346:0.473684 1347:0.368421 1348:0.473684 1349:0.736842 1350:0.315789 1351:0.368421 1352:1 1353:0.684211 1354:0.631579 1355:0.406015 1356:0.118421 1358:0.578947 1359:0.473684 1360:0.315789 1361:0.263158 1362:0.631579 1363:0.601504 1365:0.578947 1366:0.526316 1367:0.789474 1368:0.789474 1369:0.657895 1370:0.280702 1371:0.105263 1372:0.315789 1373:0.578947 1374:1 1375:0.526316 1376:0.368421 1377:0.368421 1379:0.315789 1380:0.105263 1382:0.315789 1383:0.236842 1384:0.184211 1386:0.473684 1387:0.578947 1388:0.789474 1389:0.197368 1390:0.105263 1391:0.157895 1392:0.236842 1393:0.684211 1394:0.789474 1395:0.842105 1396:0.421053 1397:1 1398:0.723684 1399:0.126316 1400:0.552632 1401:0.947368 1402:0.736842 1403:0.412955 1404:0.203008 1405:0.671053 1406:0.175439 1407:0.229665 1408:0.684211 1409:0.675439 1410:0.0688259 1411:0.368421 1412:0.210526 1414:0.105263 1415:0.614035 1416:0.315789 1417:0.280702 1418:0.157895 1419:0.473684 1420:0.315789 1421:0.157895 1422:0.307018 1423:0.473684 1424:0.350877 1425:0.552632 1426:0.505263 1429:0.315789 1435:0.429825 1436:0.578947 1437:0.280702 1438:0.236842 1439:0.0526316 1440:0.210526 1441:0.20614 1442:0.368421 1443:0.473684 1444:0.675439 1445:0.561404 1446:0.964912 1447:0.406015 1449:0.315789 1450:0.467836 1451:0.736842 1452:0.0676692 1453:0.168421 1454:0.888158 1455:0.236842 1456:0.210526 1457:0.210526 1458:0.157895 1460:0.0877193 1461:0.236842 1462:0.130194 1463:0.105263 1464:0.515789 1465:0.589474 1466:0.292398 1467:0.0526316 1468:0.315789 1470:0.442105 1471:0.263158 1472:0.394737 1473:0.189474 1474:0.0986842 1475:0.315789 1482:0.210526 1484:0.210526 1485:0.421053 1486:0.491228 1487:0.0676692 1488:0.157895 1489:0.294737 1491:0.210526 1492:0.526316 1493:0.473684 1494:0.394737 1495:0.263158 1496:0.315789 1497:0.315789 1498:0.451128 1499:0.263158 1500:0.263158 1501:0.663158 1502:0.552632 1503:0.526316 1505:0.184211 1506:0.657895 1507:0.561404 1508:0.093985 1509:0.292398 1510:0.315789 1512:0.210526 1513:0.207756 1514:0.394737 1515:0.0657895 1516:0.0526316 1517:0.394737 1518:0.105263 1519:0.0526316 1520:0.263158 1521:0.394737 1522:0.526316 1523:0.189474 1524:0.0789474 1526:0.210526 1527:0.105263 1529:0.157895 1530:0.105263 1531:0.157895 1532:0.789474 1533:0.157895 1534:0.210526 1535:0.307018 1536:0.189474 1537:0.157895 1538:0.263158 1540:0.315789 1541:0.421053 1542:0.541353 1543:0.592105 1544:0.280702 1545:0.315789 1547:0.460526 1548:1 1549:0.442105 1550:0.280702 1551:0.631579 1552:0.315789 1554:0.338346 1555:0.710526 1556:0.442105 1557:0.263158 1558:0.263158 1559:0.296053 1561:0.394737 1562:0.442105 1563:0.157895 1564:0.473684 1565:0.0947368 1566:0.0921053 1567:0.789474 1568:0.221053 1569:0.526316 1570:0.294737 1571:0.315789 1572:0.0789474 1573:0.157895 1582:0.315789 1583:0.210526 1589:0.315789 1590:0.122807 1592:0.107551 1594:0.223684 1599:0.157895 1603:0.144737 1604:0.210526 1607:0.157895 1610:0.236842 1611:0.236842 1619:0.236842 1620:0.494737 1621:0.263158 1629:0.421053 1631:0.481595 1632:0.488697 1633:0.453856 1634:0.449864 1635:0.475566 1636:0.474521 1637:0.454681 1638:0.466177 1639:0.439601 1640:0.442349 1641:0.461157 1642:0.467229 1643:0.466459 1644:0.474818 1645:0.469935 1646:0.483574 1647:0.475448 1648:0.471875 1649:0.459253 1650:0.467012 1651:0.471619 1652:0.4373 1653:0.446418 1654:0.448559 1655:0.444683 1656:0.472811 1657:0.461438 1658:0.461935 1659:0.475542 1660:0.487543 1661:0.416745 1662:0.451968 1663:0.453789 1664:0.422443 1665:0.449781 1666:0.453711 1667:0.438801 1668:0.437619 1669:0.433888 1670:0.39595 1671:0.447457 1672:0.460554 1673:0.417351 1674:0.429833 1675:0.436956 1676:0.433897 1677:0.450189 1678:0.46049 1679:0.418319 1680:0.440262 1681:0.462944 1682:0.409825 1683:0.442533 1684:0.43455 1685:0.407056 1686:0.427766 1687:0.470152 1688:0.412073 1689:0.47106 1690:0.431023 1691:0.16117 1692:0.162653 1693:0.301186 1694:0.447228 1695:0.139115 1696:0.315605 1697:0.154553 1698:0.113043 1699:0.266511 1700:0.271235 1701:0.30065 1702:0.352733 1703:0.200183 1704:0.304401 1705:0.211732 1706:0.430202 1707:0.459075 1708:0.194747 1709:0.292442 1710:0.241876 1711:0.193777 1712:0.111217 1713:0.349301 1714:0.45283 1715:0.173776 1716:0.241176 1717:0.166474 1718:0.0962538 1719:0.254072 1720:0.30391 1721:0.37541 1722:0.264612 1723:0.19596 1724:0.397163 1725:0.223729 1726:0.459459 1727:0.411877 1728:0.249593 1729:0.327308 1730:0.244513 1731:0.229329 1732:0.204711 1733:0.226849 1734:0.192857 1735:0.260949 1736:0.395713 1737:0.268444 1738:0.486202 1739:0.323929 1740:0.257188 1741:0.331953 1742:0.289954 1743:0.370855 1744:0.533163 1745:0.600661 1746:0.730254 1747:0.641206 1748:0.758835 1749:0.449886 1750:0.550797 1751:0.805411 1752:0.582766 1753:0.613845 1754:0.768959 1755:0.734394 1756:0.796332 1757:0.826152 1758:0.925637 1759:0.893445 1760:0.910482 1761:0.24724 1762:0.189034 1763:0.179758 1764:0.221726 1765:0.183028 1766:0.202705 1767:0.330687 1768:0.32738 1769:0.136081 1770:0.230328 1771:0.36365 1772:0.375663 1773:0.348515 1774:0.650841 1775:0.501343 1776:0.697834 1777:0.577107 1778:0.735469 1779:0.548665 1780:0.496155 1781:0.814937 1782:0.544927 1783:0.577309 1784:0.745094 1785:0.674396 1786:0.787613 1787:0.841166 1788:0.860295 1789:0.819314 1790:0.804022 1791:0.242685 1792:0.284284 1793:0.320915 1794:0.365505 1795:0.0760795 1796:0.478022 1797:0.169481 1798:0.185059 1799:0.339145 1800:0.538111 1801:0.405922 1802:0.627567 1803:0.357941 1804:0.519729 1805:0.257426 1806:0.408215 1807:0.29166 1808:0.34735 1809:0.380697 1810:0.299152 1811:0.498656 1812:0.363751 1813:0.460784 1814:0.521981 1815:0.464233 1816:0.572622 1817:0.449603 1818:0.469982 1819:0.360162 1820:0.274551 1821:0.34832 1822:0.262705 1823:0.459597 1824:0.583545 1825:0.423468 1826:0.453131 1827:0.491835 1828:0.546302 1829:0.382682 1830:0.357484 1831:0.615693 1832:0.358551 1833:0.407984 1834:0.377026 1835:0.355362 1836:0.583162 1837:0.420446 1838:0.501878 1839:0.407568 1840:0.359446 1841:0.291694 1842:0.27233 1843:0.361945 1844:0.365219 1845:0.0858064 1846:0.477647 1847:0.203534 1848:0.210189 1849:0.412476 1850:0.538978 1851:0.403599 1852:0.715471 1853:0.430109 1854:0.519322 1855:0.276484 1856:0.490973 1857:0.350262 1858:0.345006 1859:0.400691 1860:0.298515 1861:0.458017 1862:0.424545 1863:0.555813 1864:0.559486 1865:0.488283 1866:0.505102 1867:0.275634 1868:0.368667 1869:0.487918 1870:0.299385 1871:0.361418 1872:0.320783 1873:0.238953 1874:0.341255 1875:0.405812 1876:0.297917 1877:0.403786 1878:0.433209 1879:0.520974 1880:0.470783 1881:0.454122 1882:0.411213 1883:0.446244 1884:0.458277 1885:0.519291 1886:0.501041 1887:0.49053 1888:0.383965 1889:0.473901 1890:0.450301 1891:0.375198 1892:0.313992 1893:0.199901 1894:0.347803 1895:0.311691 1896:0.283829 1897:0.577779 1898:0.599658 1899:0.382356 1900:0.351069 1901:0.30942 1902:0.307619 1903:0.424899 1904:0.504749 1905:0.515176 1906:0.497375 1907:0.500642 1908:0.382845 1909:0.565226 1910:0.525518 1911:0.525354 1912:0.335955 1913:0.459969 1914:0.429238 1915:0.435698 1916:0.339707 1917:0.359649 1918:0.435359 1919:0.594819 1920:0.473228 
1.095753009251365 1:0.273265 2:0.242129 3:0.37368 4:0.513699 5:0.177772 6:0.358305 7:0.126881 8:0.178767 9:0.305556 10:0.33167 11:0.248721 12:0.349826 13:0.394533 14:0.431963 15:0.345575 16:0.621563 17:0.422436 18:0.257012 19:0.63984 20:0.306539 22:0.0526316 23:0.133181 24:0.0495805 25:0.220824 26:0.23653 27:0.112128 28:0.0926774 30:0.130149 31:0.112128 32:0.0686499 33:0.2746 35:0.199542 36:0.249428 37:0.231121 40:0.245614 41:0.105263 42:0.181541 44:0.185355 45:0.0686499 46:0.457666 48:0.0869565 52:0.148741 54:0.1373 55:0.289092 56:0.148741 60:0.0526316 61:0.281465 62:0.370709 63:0.0765217 66:0.135011 70:0.306636 71:0.0800915 72:0.240275 74:0.556064 75:0.148741 76:0.21167 77:0.896262 79:0.159039 81:0.071701 82:0.236842 83:0.136156 85:0.537757 86:0.0983982 87:0.232647 88:0.265446 90:0.336384 91:0.299008 92:0.139588 94:0.289855 95:0.134554 96:0.149504 101:0.216629 103:0.208238 112:0.208238 113:0.37643 116:0.295195 119:0.148741 121:0.320366 123:0.641876 124:0.421053 126:0.183066 127:0.0915332 128:0.1373 129:0.112128 130:0.149504 131:0.122044 132:0.238558 133:0.183066 134:0.106026 135:0.0983982 136:0.215103 137:0.112128 141:0.112128 142:0.153318 144:0.306636 148:0.121281 149:0.183066 150:0.196339 151:0.183066 155:0.124714 158:0.183066 161:0.162014 162:0.101449 163:0.118905 166:0.0789474 168:0.0778032 171:0.185355 172:0.0743707 173:0.583982 174:0.136156 175:0.234717 177:0.0743707 178:0.272311 179:0.2746 184:0.332952 188:0.170481 189:0.0739893 190:0.143402 192:0.148741 194:0.217391 196:0.393593 197:0.115561 199:0.272311 201:0.153318 202:0.279176 204:0.295195 206:0.240275 208:0.157895 209:0.306636 210:0.170195 212:0.286643 213:0.148741 215:0.153318 217:0.142639 219:0.148741 220:0.106979 221:0.0732266 222:0.071701 224:0.127231 225:0.229814 226:0.207094 227:0.124714 228:0.104119 229:0.147216 230:0.120137 232:0.224256 235:0.265446 236:0.2746 237:0.224256 238:0.185355 239:0.170481 240:0.149504 241:0.297483 242:0.106178 244:0.140351 246:0.209382 247:0.112128 248:0.215103 249:0.115561 251:0.258124 252:0.138825 253:0.148741 255:0.1373 256:0.131198 257:0.136156 258:0.1373 260:0.371854 263:0.224256 266:0.218535 267:0.183066 270:0.153318 271:0.189931 274:0.216247 276:1 277:0.148741 279:0.213959 281:0.156179 283:0.624714 284:0.157895 285:0.1373 286:0.255721 288:0.102212 289:0.114416 290:0.120955 291:0.0782609 294:0.306636 296:0.15103 297:0.280702 299:0.224256 300:0.256865 301:0.216934 303:0.370709 304:0.332571 307:0.071701 308:0.0923913 310:0.2746 311:0.346682 312:0.135011 313:0.144165 314:0.171952 315:0.0714357 316:0.0813237 317:0.215103 320:0.286804 321:0.131198 322:0.104119 323:0.615984 324:0.306636 327:0.284897 328:0.195271 329:0.2746 330:0.382151 331:0.245995 332:0.507094 334:0.215103 335:0.202517 336:0.373761 339:0.411899 340:0.185355 342:0.0770404 345:0.148741 346:0.112128 348:0.0743707 350:0.0814645 351:0.184211 352:0.104119 353:0.179253 354:0.462243 356:0.231121 357:0.246281 359:0.549199 360:0.185355 362:0.272311 363:0.28833 366:0.228833 370:0.393593 381:0.0686499 382:0.297483 383:0.610984 384:0.393593 386:0.153318 390:0.335011 391:0.120137 392:0.0686499 394:0.157895 395:0.148741 396:0.153318 399:0.170481 400:0.265446 401:0.0554284 403:0.157895 404:0.0840961 408:0.0680778 409:0.147597 410:0.115561 412:0.0663616 413:0.297483 414:0.448513 415:0.322654 416:0.672197 419:0.28833 420:0.0860412 421:0.395246 422:0.596851 423:0.336172 424:0.466781 425:0.488025 426:0.568591 427:0.33235 428:0.564485 429:0.346305 430:0.492644 431:0.183543 432:0.441674 433:0.149128 434:0.360097 435:0.365324 436:0.497925 437:0.611757 438:0.539217 439:0.570973 440:0.449515 441:0.322486 442:0.672608 443:0.408398 444:0.425966 445:0.726218 446:0.431931 447:0.254274 448:0.200554 449:0.767929 450:0.793079 451:0.262292 452:0.397716 453:0.350837 454:0.320319 455:0.459141 456:0.441809 457:0.438437 458:0.440229 459:0.27681 460:0.307625 461:0.301572 462:0.465335 463:0.281553 464:0.352829 465:0.246742 466:0.394641 467:0.51806 468:0.362026 469:0.496674 470:0.393737 471:0.432769 472:0.579404 473:0.416889 474:0.489235 475:0.600658 476:0.344138 477:0.21729 478:0.356623 479:0.748891 480:0.579946 481:0.313736 482:0.369876 483:0.286658 484:0.303301 485:0.45447 486:0.199217 487:0.364939 488:0.345963 489:0.341167 490:0.489632 491:0.20049 492:0.279438 493:0.420896 494:0.400907 495:0.449812 496:0.572999 497:0.462903 498:0.494859 499:0.388354 500:0.199643 501:0.428361 502:0.277316 503:0.610647 504:0.356953 505:0.473604 506:0.524081 507:0.352709 508:0.582539 509:0.526225 510:0.586842 511:0.551323 512:0.664535 513:0.159263 514:0.534039 515:0.392648 516:0.268389 517:0.499274 518:0.672434 519:0.497595 520:0.575016 521:0.556958 522:0.165483 523:0.431143 524:0.567236 525:0.508487 526:0.215442 527:0.622174 528:0.45705 529:0.140808 530:0.769215 531:0.407975 532:0.424022 533:0.487928 534:0.314936 535:0.478351 536:0.519068 537:0.352929 538:0.348078 539:0.431954 540:0.367331 541:0.27481 542:0.277798 543:0.233862 544:0.281196 545:0.334183 546:0.25462 547:0.344088 548:0.299548 549:0.400677 550:0.44814 551:0.251837 552:0.301866 553:0.470859 554:0.513626 555:0.49739 556:0.594252 557:0.544151 558:0.492675 559:0.46963 560:0.248798 561:0.362346 562:0.257413 563:0.669207 564:0.408204 565:0.413267 566:0.48227 567:0.432504 568:0.620697 569:0.467671 570:0.588998 571:0.245484 572:0.344841 573:0.273695 574:0.28048 575:0.425618 576:0.276171 577:0.387892 578:0.343215 579:0.366154 580:0.508532 581:0.146193 582:0.298631 583:0.484682 584:0.439006 585:0.542236 586:0.601006 587:0.485603 588:0.566095 589:0.357951 590:0.198023 591:0.474254 592:0.320996 593:0.528985 594:0.411607 595:0.536519 596:0.469258 597:0.293115 598:0.506212 599:0.485686 600:0.6301 601:0.154974 602:0.142287 603:0.151365 604:0.15586 605:0.281599 606:0.2708 607:0.269705 608:0.346303 609:0.28322 610:0.365113 611:0.219903 612:0.52459 613:0.346609 614:0.462859 615:0.309242 616:0.406528 617:0.421764 618:0.554478 619:0.330821 620:0.316581 621:0.41184 622:0.346066 623:0.291587 624:0.415116 625:0.636679 626:0.446289 627:0.248584 628:0.454125 629:0.325156 630:0.690479 631:0.385708 632:0.465652 633:0.60107 634:0.374753 635:0.631672 636:0.306535 637:0.358783 638:0.494091 639:0.476713 640:0.373794 641:0.28115 642:0.402125 643:0.318922 644:0.314235 645:0.340001 646:0.444066 647:0.296493 648:0.488209 649:0.512065 650:0.214792 651:0.404229 652:0.532906 653:0.680704 654:0.588308 655:0.341423 656:0.441283 657:0.543527 658:0.224199 659:0.670283 660:0.532292 661:0.456343 662:0.699441 663:0.448002 664:0.524963 665:0.472707 666:0.675867 667:0.384782 668:0.628396 669:0.465214 670:0.632112 671:0.170197 672:0.507287 673:0.261777 674:0.429807 675:0.367916 676:0.504053 677:0.517462 678:0.534131 679:0.66141 680:0.418471 681:0.412731 682:0.634474 683:0.55244 684:0.526445 685:0.799078 686:0.448202 687:0.272747 688:0.309493 689:0.802551 690:0.874549 691:0.438734 692:0.544179 693:0.511366 694:0.548681 695:0.612603 696:0.494236 697:0.663583 698:0.618596 699:0.397395 700:0.359356 701:0.414273 702:0.595703 703:0.471035 704:0.341611 705:0.472805 706:0.415603 707:0.775224 708:0.440203 709:0.492028 710:0.441187 711:0.430676 712:0.739989 713:0.541392 714:0.655401 715:0.796761 716:0.523371 717:0.2679 718:0.437197 719:0.903013 720:0.737673 721:0.39439 722:0.465611 723:0.433244 724:0.462077 725:0.683995 726:0.249545 727:0.39041 728:0.543127 729:0.476943 730:0.571864 731:0.268316 732:0.234212 733:0.50215 734:0.451316 735:0.596174 736:0.786773 737:0.503706 738:0.590629 739:0.377 740:0.181825 741:0.497438 742:0.465431 743:0.846029 744:0.474673 745:0.562747 746:0.562604 747:0.459807 748:0.665831 749:0.712626 750:0.606618 751:0.632039 752:0.580126 753:0.291562 754:0.563207 755:0.57777 756:0.386066 757:0.546065 758:0.722694 759:0.671958 760:0.751217 761:0.53775 762:0.294596 763:0.512628 764:0.529374 765:0.715985 766:0.372602 767:0.525689 768:0.620036 769:0.343153 770:0.786918 771:0.557175 772:0.544985 773:0.597796 774:0.495593 775:0.530151 776:0.575686 777:0.480976 778:0.30818 779:0.51722 780:0.571708 781:0.379275 782:0.459033 783:0.351502 784:0.510399 785:0.560489 786:0.293653 787:0.34915 788:0.340848 789:0.519673 790:0.648732 791:0.339045 792:0.442918 793:0.535481 794:0.58808 795:0.632508 796:0.850964 797:0.60032 798:0.510483 799:0.444659 800:0.352596 801:0.448779 802:0.413445 803:0.844708 804:0.519631 805:0.534317 806:0.534739 807:0.637124 808:0.739659 809:0.655227 810:0.646104 811:0.402824 812:0.490106 813:0.410181 814:0.460534 815:0.664464 816:0.347803 817:0.490079 818:0.46329 819:0.538391 820:0.646414 821:0.203423 822:0.39003 823:0.54245 824:0.614064 825:0.548454 826:0.802274 827:0.508402 828:0.635277 829:0.388076 830:0.337466 831:0.517914 832:0.483313 833:0.666045 834:0.530037 835:0.566994 836:0.529305 837:0.364474 838:0.560114 839:0.703224 840:0.663064 841:0.414885 842:0.292354 843:0.215757 844:0.36648 845:0.520164 846:0.597878 847:0.376856 848:0.58683 849:0.495493 850:0.461803 851:0.343537 852:0.75103 853:0.458124 854:0.672845 855:0.293284 856:0.571346 857:0.637422 858:0.737712 859:0.42435 860:0.540285 861:0.428179 862:0.469953 863:0.423278 864:0.483581 865:0.816121 866:0.498478 867:0.275138 868:0.595474 869:0.506946 870:0.823747 871:0.516431 872:0.496877 873:0.511293 874:0.484781 875:0.837783 876:0.32909 877:0.414272 878:0.64789 879:0.666811 880:0.340434 881:0.376711 882:0.587127 883:0.327738 884:0.403654 885:0.3426 886:0.418868 887:0.31317 888:0.62412 889:0.595242 890:0.257482 891:0.330286 892:0.507614 893:0.629389 894:0.64878 895:0.372102 896:0.472861 897:0.592135 898:0.273255 899:0.586038 900:0.697868 901:0.549928 902:0.317989 903:0.582575 904:0.468598 905:0.543597 906:0.418478 907:0.638215 908:0.485793 909:0.605403 910:0.39962 911:0.838793 912:0.553573 913:0.793547 914:0.58832 915:0.645932 916:0.527238 917:0.492988 918:0.557615 919:0.367045 920:0.597178 921:0.600552 922:0.390958 923:0.544116 924:0.580936 925:0.243518 926:0.649586 927:0.812342 928:0.667462 929:0.168108 930:0.132356 931:0.589352 932:0.499154 933:0.521068 934:0.514529 935:0.411966 936:0.567627 937:0.444048 938:0.410016 939:0.677488 940:0.63146 941:0.572133 942:0.387786 943:0.484218 944:0.719664 945:0.555481 946:0.606337 947:0.244907 948:0.546749 949:0.501721 950:0.541158 951:0.598992 952:0.202162 953:0.499146 954:0.371901 955:0.127592 956:0.48555 957:0.67768 958:0.568873 959:0.131555 960:0.233804 961:0.612213 962:0.551351 963:0.568327 964:0.579926 965:0.322668 966:0.733683 967:0.602467 968:0.480583 969:0.497896 970:0.325496 971:0.724404 972:0.663521 973:0.43444 974:0.527153 975:0.384013 976:0.197652 977:0.623188 978:0.377172 979:0.544206 980:0.805854 981:0.422798 982:0.462736 983:0.101945 984:0.455176 985:0.418104 986:0.323822 987:0.410367 988:0.2453 989:0.230718 990:0.364416 991:0.370311 992:0.40864 993:0.698036 994:0.402977 995:0.420578 996:0.581251 997:0.469391 998:0.365272 999:0.454146 1000:0.211392 1001:0.444905 1002:0.698914 1003:0.576809 1004:0.455509 1005:0.367309 1006:0.648361 1007:0.474182 1008:0.535979 1009:0.70712 1010:0.211078 1011:0.409313 1012:0.469 1013:0.523379 1014:0.565249 1015:0.59896 1016:0.383864 1017:0.625486 1018:0.574619 1019:0.575086 1020:0.59092 1021:0.6193 1022:0.556864 1023:0.649279 1024:0.514378 1025:0.42739 1026:0.739474 1027:0.679659 1028:0.630003 1029:0.434858 1030:0.289675 1031:0.59504 1032:0.580711 1033:0.393234 1034:0.400491 1035:0.304159 1036:0.1471 1037:0.437266 1038:0.466392 1039:0.597591 1040:0.706731 1041:0.461788 1042:0.469377 1043:0.083408 1044:0.420357 1045:0.468086 1046:0.376102 1047:0.339808 1048:0.214028 1049:0.25528 1050:0.306223 1051:0.599541 1052:0.521598 1053:0.603539 1054:0.53023 1055:0.327077 1056:0.640186 1057:0.538567 1058:0.556112 1059:0.44077 1060:0.305202 1061:0.717558 1062:0.575422 1063:0.399913 1064:0.350717 1065:0.427798 1066:0.17977 1067:0.530639 1068:0.352309 1069:0.602902 1070:0.689613 1071:0.449529 1072:0.423373 1073:0.259106 1074:0.408247 1075:0.344036 1076:0.433247 1077:0.549898 1078:0.397027 1079:0.241171 1080:0.348279 1081:0.588778 1082:0.713814 1083:0.80175 1084:0.615347 1085:0.458413 1086:0.415417 1087:0.587031 1088:0.374348 1089:0.477866 1090:0.546534 1091:0.65509 1092:0.274575 1093:0.418235 1094:0.289031 1095:0.654788 1096:0.346581 1097:0.407507 1098:0.26831 1099:0.517939 1100:0.411193 1101:0.540292 1102:0.428448 1103:0.481492 1104:0.470665 1105:0.214964 1106:0.379572 1107:0.679204 1108:0.465528 1109:0.511579 1110:0.140183 1111:0.499587 1112:0.540259 1113:0.481676 1114:0.534993 1115:0.210811 1116:0.705068 1117:0.552703 1118:0.381952 1119:0.341317 1120:0.666399 1121:0.652142 1122:0.411593 1123:0.719181 1124:0.602931 1125:0.727187 1126:0.575484 1127:0.706739 1128:0.406743 1129:0.388769 1130:0.661572 1131:0.614971 1132:0.459939 1133:0.417662 1134:0.353602 1135:0.613368 1136:0.491867 1137:0.382053 1138:0.684572 1139:0.395848 1140:0.322315 1141:0.441659 1142:0.508579 1143:0.37463 1144:0.59095 1145:0.304621 1146:0.552632 1147:0.415489 1148:0.459475 1149:0.488762 1150:0.536877 1151:0.42248 1152:0.552632 1153:0.283623 1154:0.571461 1155:0.560485 1156:0.23103 1157:0.510623 1158:0.619892 1159:0.28966 1160:0.441659 1161:0.664379 1162:0.554016 1163:0.36002 1164:0.465726 1165:0.588471 1166:0.438127 1167:0.59214 1168:0.453393 1169:0.396399 1170:0.489956 1171:0.652817 1172:0.612172 1173:0.635991 1174:0.237815 1175:0.355263 1176:0.611819 1177:0.253998 1178:0.62058 1179:0.688459 1180:0.350982 1181:0.719241 1182:0.582352 1183:0.115823 1184:0.115823 1185:0.115823 1186:0.115823 1187:0.115823 1188:0.0212612 1189:0.0212612 1190:0.0212612 1191:0.0212612 1192:0.0212612 1193:0.122532 1194:0.122532 1195:0.122532 1196:0.122532 1197:0.122532 1198:0.0348422 1199:0.0348422 1200:0.0348422 1201:0.0348422 1202:0.0348422 1203:0.0635088 1204:0.0635088 1205:0.0635088 1206:0.0635088 1207:0.0635088 1208:0.122532 1209:0.122532 1210:0.122532 1211:0.122532 1212:0.122532 1213:0.122532 1214:0.122532 1215:0.122532 1216:0.122532 1217:0.122532 1218:0.0207913 1219:0.0207913 1220:0.0207913 1221:0.0207913 1222:0.0207913 1223:0.115823 1224:0.115823 1225:0.115823 1226:0.115823 1227:0.115823 1228:0.0348422 1229:0.0348422 1230:0.0348422 1231:0.0348422 1232:0.0348422 1233:0.0590308 1234:0.0590308 1235:0.0590308 1236:0.0590308 1237:0.0590308 1238:0.122532 1239:0.122532 1240:0.122532 1241:0.122532 1242:0.122532 1243:0.0245285 1244:0.0245285 1245:0.0245285 1246:0.0245285 1247:0.0245285 1248:0.122532 1249:0.122532 1250:0.122532 1251:0.122532 1252:0.122532 1253:0.0511984 1254:0.0511984 1255:0.0511984 1256:0.0511984 1257:0.0511984 1258:0.122532 1259:0.122532 1260:0.122532 1261:0.122532 1262:0.122532 1263:0.0655882 1264:0.0655882 1265:0.0655882 1266:0.0655882 1267:0.0655882 1268:0.0271926 1269:0.0271926 1270:0.0271926 1271:0.0271926 1272:0.0271926 1273:0.0257703 1274:0.0257703 1275:0.0257703 1276:0.0257703 1277:0.0257703 1278:0.115823 1279:0.115823 1280:0.115823 1281:0.115823 1282:0.115823 1283:0.122532 1284:0.122532 1285:0.122532 1286:0.122532 1287:0.122532 1288:0.5 1289:0.5 1290:0.375 1292:0.125 1293:0.25 1295:0.5 1296:0.125 1297:0.625 1298:0.4375 1299:0.15 1300:0.375 1301:0.5625 1302:0.375 1303:1 1304:0.5 1305:0.7 1306:0.25 1307:0.15 1309:0.125 1310:0.25 1312:0.125 1313:0.375 1316:0.125 1317:0.25 1318:0.25 1321:0.15625 1324:0.125 1325:0.375 1326:0.21875 1327:0.1875 1332:0.4375 1337:0.125 1338:0.375 1339:0.75 1340:0.5 1341:0.375 1342:0.25 1344:0.25 1345:0.75 1347:0.625 1348:0.25 1349:0.5 1351:0.25 1352:0.875 1353:0.75 1354:0.125 1355:0.160714 1358:0.125 1359:0.375 1360:0.25 1361:0.5 1362:0.333333 1365:0.25 1366:0.125 1368:0.1875 1369:0.46875 1370:0.833333 1372:0.625 1373:0.375 1374:0.296875 1375:0.15625 1376:0.25 1377:0.375 1378:0.375 1381:0.225 1382:0.375 1386:0.375 1387:0.5 1388:0.375 1389:0.15625 1390:0.125 1393:1 1394:0.5 1395:0.5 1396:0.125 1397:0.316667 1398:0.78125 1400:0.291667 1401:0.5 1402:1 1403:0.817308 1404:0.482143 1405:0.53125 1407:0.136364 1408:0.5 1409:0.729167 1410:0.163462 1411:0.175 1412:0.5 1414:0.125 1415:0.145833 1416:0.25 1417:0.166667 1418:0.125 1419:0.675 1420:0.75 1421:0.25 1422:0.4375 1423:0.125 1425:0.1875 1427:0.367187 1430:0.375 1436:0.125 1437:0.166667 1438:0.375 1440:0.166667 1443:0.5 1444:0.291667 1445:0.333333 1446:0.833333 1447:0.321429 1449:0.3 1450:0.277778 1451:0.7 1453:0.2 1454:0.46875 1455:0.5625 1456:0.125 1457:0.25 1458:0.375 1461:0.1875 1463:1 1467:0.375 1468:0.1875 1470:0.175 1471:0.25 1473:0.15 1474:0.46875 1484:0.625 1485:0.5 1486:1 1488:0.1875 1491:0.25 1492:0.25 1493:0.25 1497:0.25 1498:0.357143 1499:0.125 1501:0.7875 1502:0.1875 1506:0.3125 1507:0.166667 1512:0.5 1513:0.328947 1514:0.1875 1516:0.375 1517:0.1875 1520:0.625 1522:0.625 1523:0.225 1524:0.375 1526:0.25 1533:0.125 1534:0.25 1535:0.4375 1538:0.125 1539:0.5625 1540:0.375 1541:0.25 1542:0.642857 1543:0.15625 1544:0.5 1545:0.375 1547:0.15625 1548:0.139706 1549:0.3 1550:0.166667 1552:0.5 1554:0.160714 1556:0.3 1558:0.625 1559:0.703125 1561:0.375 1562:0.175 1563:0.375 1564:0.1875 1565:0.225 1569:0.25 1570:0.175 1571:0.5 1573:0.375 1577:0.375 1579:0.25 1584:0.25 1597:0.28125 1598:0.1875 1600:0.75 1604:0.5 1610:0.5625 1631:0.122096 1632:0.13381 1633:0.142652 1634:0.1252 1635:0.127495 1636:0.130796 1637:0.131694 1638:0.134927 1639:0.131258 1640:0.127916 1641:0.131275 1642:0.129503 1643:0.134595 1644:0.129033 1645:0.125953 1646:0.123409 1647:0.128296 1648:0.136462 1649:0.12512 1650:0.130847 1651:0.124259 1652:0.12639 1653:0.129142 1654:0.134372 1655:0.131323 1656:0.130416 1657:0.137147 1658:0.120285 1659:0.130734 1660:0.123204 1661:0.120041 1662:0.122175 1663:0.133503 1664:0.1237 1665:0.128991 1666:0.127583 1667:0.122013 1668:0.12163 1669:0.133882 1670:0.107642 1671:0.133357 1672:0.134708 1673:0.127626 1674:0.121859 1675:0.127012 1676:0.116144 1677:0.122564 1678:0.139268 1679:0.116833 1680:0.137369 1681:0.124676 1682:0.119259 1683:0.129159 1684:0.116875 1685:0.119122 1686:0.125172 1687:0.140013 1688:0.116373 1689:0.122356 1690:0.111084 1691:0.193371 1692:0.228534 1693:0.335337 1694:0.454907 1695:0.152824 1696:0.310035 1697:0.0918501 1698:0.172094 1699:0.292773 1700:0.235612 1701:0.1552 1702:0.309005 1703:0.308497 1704:0.310849 1705:0.286592 1706:0.454099 1707:0.34914 1708:0.197481 1709:0.50866 1710:0.217737 1711:0.229137 1712:0.152091 1713:0.38523 1714:0.455189 1715:0.189161 1716:0.235294 1717:0.0983815 1718:0.149576 1719:0.277199 1720:0.261723 1721:0.198361 1722:0.229543 1723:0.298701 1724:0.401891 1725:0.301695 1726:0.48132 1727:0.310345 1728:0.25122 1729:0.565385 1730:0.218989 1731:0.120533 1732:0.223836 1733:0.377512 1734:0.208624 1735:0.221516 1736:0.390429 1737:0.341086 1738:0.580518 1739:0.472903 1740:0.361783 1741:0.380111 1742:0.283503 1743:0.539816 1744:0.465627 1745:0.475304 1746:0.520583 1747:0.543208 1748:0.795312 1749:0.40665 1750:0.556995 1751:0.665848 1752:0.627326 1753:0.675628 1754:0.869854 1755:0.851521 1756:0.731674 1757:0.885998 1758:0.736431 1759:0.812283 1760:0.642218 1761:0.293306 1762:0.136839 1763:0.25603 1764:0.298119 1765:0.248535 1766:0.221289 1767:0.296399 1768:0.27797 1769:0.284794 1770:0.126303 1771:0.537444 1772:0.465618 1773:0.53994 1774:0.621317 1775:0.563583 1776:0.560736 1777:0.402449 1778:0.845798 1779:0.502429 1780:0.758068 1781:0.670313 1782:0.565888 1783:0.621961 1784:0.576398 1785:0.71232 1786:0.797471 1787:0.897083 1788:0.806515 1789:0.594546 1790:0.531909 1791:0.0797726 1792:0.107898 1793:0.105296 1794:0.109562 1795:0.0246297 1796:0.138385 1797:0.0296822 1798:0.0666462 1799:0.109793 1800:0.135109 1801:0.0736893 1802:0.161571 1803:0.148612 1804:0.156406 1805:0.102684 1806:0.124133 1807:0.0653683 1808:0.1038 1809:0.195138 1810:0.0800432 1811:0.401222 1812:0.405943 1813:0.58332 1814:0.51467 1815:0.456961 1816:0.564306 1817:0.574043 1818:0.542203 1819:0.505568 1820:0.291707 1821:0.410817 1822:0.401246 1823:0.560445 1824:0.624107 1825:0.395344 1826:0.3301 1827:0.413227 1828:0.618944 1829:0.437528 1830:0.375063 1831:0.50436 1832:0.507796 1833:0.459098 1834:0.511542 1835:0.465123 1836:0.551584 1837:0.472163 1838:0.433809 1839:0.322673 1840:0.206059 1841:0.0986841 1842:0.106704 1843:0.122015 1844:0.112479 1845:0.0285405 1846:0.142069 1847:0.0366237 1848:0.078988 1849:0.137196 1850:0.141352 1851:0.0760642 1852:0.188927 1853:0.183274 1854:0.16057 1855:0.113311 1856:0.154139 1857:0.0806554 1858:0.105927 1859:0.21102 1860:0.0817232 1861:0.596402 1862:0.659841 1863:0.504954 1864:0.569134 1865:0.383792 1866:0.395431 1867:0.355332 1868:0.496563 1869:0.489513 1870:0.400517 1871:0.445171 1872:0.415872 1873:0.170993 1874:0.297829 1875:0.386647 1876:0.216478 1877:0.294738 1878:0.356121 1879:0.538696 1880:0.398237 1881:0.460092 1882:0.346268 1883:0.388488 1884:0.366757 1885:0.583469 1886:0.349972 1887:0.424065 1888:0.44912 1889:0.504017 1890:0.547192 1891:0.457209 1892:0.44398 1893:0.308715 1894:0.530034 1895:0.284607 1896:0.20572 1897:0.556632 1898:0.635592 1899:0.381218 1900:0.347268 1901:0.408999 1902:0.45551 1903:0.323525 1904:0.440678 1905:0.388866 1906:0.310757 1907:0.410482 1908:0.31591 1909:0.435363 1910:0.465346 1911:0.538549 1912:0.304931 1913:0.479087 1914:0.293899 1915:0.522747 1916:0.394854 1917:0.423062 1918:0.554844 1919:0.718129 1920:0.628243 
